{"learner":{"attributes":{"scikit_learn":"{\"_estimator_type\": \"classifier\"}"},"feature_names":[],"feature_types":[],"gradient_booster":{"model":{"gbtree_model_param":{"num_parallel_tree":"1","num_trees":"100"},"iteration_indptr":[0,1,2,3,4,5,6,7,8,9,10,11,12,13,14,15,16,17,18,19,20,21,22,23,24,25,26,27,28,29,30,31,32,33,34,35,36,37,38,39,40,41,42,43,44,45,46,47,48,49,50,51,52,53,54,55,56,57,58,59,60,61,62,63,64,65,66,67,68,69,70,71,72,73,74,75,76,77,78,79,80,81,82,83,84,85,86,87,88,89,90,91,92,93,94,95,96,97,98,99,100],"tree_info":[0,0,0,0,0,0,0,0,0,0,0,0,0,0,0,0,0,0,0,0,0,0,0,0,0,0,0,0,0,0,0,0,0,0,0,0,0,0,0,0,0,0,0,0,0,0,0,0,0,0,0,0,0,0,0,0,0,0,0,0,0,0,0,0,0,0,0,0,0,0,0,0,0,0,0,0,0,0,0,0,0,0,0,0,0,0,0,0,0,0,0,0,0,0,0,0,0,0,0,0],"trees":[{"base_weights":[-7.5790197E-1,-1.0794082E0,-8.34136E-2,-1.0856712E0,-2.6849797E-2,-3.5382184E-1,5.8163065E-1,-3.4067142E-1,-9.4522434E-1,-4.751679E-1,5.7381415E-1,2.2678117E-1,1.0075839E0,-9.838832E-1,-6.022439E-1,-6.054239E-1,3.304196E-2,1.5704519E-1,6.473178E-1,5.7578623E-1,-4.5220196E-1,1.2481081E0,-3.028915E-1,-5.656223E-1,-3.038E-1,3.4141678E-1,-9.109894E-1,-7.634909E-1,-2.7986044E-1,3.9811423E-1,-6.047609E-1,-1.3436954E-1,3.059827E-1,-4.853362E-1,7.7621657E-1,2.2436325E-1,-8.5334533E-1,3.9018312E-1,1.5296756E0,7.929921E-2,-2.0723724E-1,-2.6285934E-1,-3.027903E-2,-7.141781E-2,2.4750715E-1,-3.0244586E-1,-3.915387E-2,-1.2272996E-1,-2.954277E-1,1.5907684E-1,-1.6190304E-1,3.9816286E-2,4.8570856E-1,-2.385707E-1,1.8726094E-2,-1.6433416E-1,1.01655625E-1,-3.915387E-2,-1.8248439E-1,4.323307E-2,4.470376E-1,-8.515794E-2,-2.8582606E-1,5.341682E-1,-1.210791E-1,6.2904876E-1,3.24593E-1],"categories":[],"categories_nodes":[],"categories_segments":[],"categories_sizes":[],"default_left":[0,0,0,0,0,0,0,0,0,0,0,0,0,0,0,0,0,0,0,0,0,0,0,0,0,0,0,0,0,0,0,0,0,0,0,0,0,0,0,0,0,0,0,0,0,0,0,0,0,0,0,0,0,0,0,0,0,0,0,0,0,0,0,0,0,0,0],"id":0,"left_children":[1,3,5,7,-1,9,11,-1,13,15,17,19,21,23,25,27,29,31,-1,33,35,37,39,41,-1,43,45,47,49,51,53,55,-1,57,59,-1,61,63,65,-1,-1,-1,-1,-1,-1,-1,-1,-1,-1,-1,-1,-1,-1,-1,-1,-1,-1,-1,-1,-1,-1,-1,-1,-1,-1,-1,-1],"loss_changes":[9.433443E1,1.7305298E0,2.5677578E1,9.790039E-1,0E0,1.1677633E1,6.0172787E0,0E0,5.044861E-1,5.9874E0,7.6972055E0,5.9080205E0,6.2058105E0,3.0338287E-1,3.5039513E0,3.4815426E0,4.7437825E0,2.8317373E0,0E0,3.8182144E0,4.8030415E0,3.22398E0,9.90515E-1,9.147663E-1,0E0,1.1573523E0,5.1528645E-1,3.342167E0,5.558186E0,3.9657426E0,9.947336E-1,1.9256636E0,0E0,5.960238E-2,6.100874E0,0E0,1.23064995E-1,6.5137033E0,6.6812515E-1,0E0,0E0,0E0,0E0,0E0,0E0,0E0,0E0,0E0,0E0,0E0,0E0,0E0,0E0,0E0,0E0,0E0,0E0,0E0,0E0,0E0,0E0,0E0,0E0,0E0,0E0,0E0,0E0],"parents":[2147483647,0,0,1,1,2,2,3,3,5,5,6,6,8,8,9,9,10,10,11,11,12,12,13,13,14,14,15,15,16,16,17,17,19,19,20,20,21,21,22,22,23,23,25,25,26,26,27,27,28,28,29,29,30,30,31,31,33,33,34,34,36,36,37,37,38,38],"right_children":[2,4,6,8,-1,10,12,-1,14,16,18,20,22,24,26,28,30,32,-1,34,36,38,40,42,-1,44,46,48,50,52,54,56,-1,58,60,-1,62,64,66,-1,-1,-1,-1,-1,-1,-1,-1,-1,-1,-1,-1,-1,-1,-1,-1,-1,-1,-1,-1,-1,-1,-1,-1,-1,-1,-1,-1],"split_conditions":[5.9161514E-1,2.7376716E0,1.4313169E0,6.1277233E-2,-2.6849797E-2,4.198834E0,-5.7675228E-2,-3.4067142E-1,1.4155146E0,1.8363764E0,8.435142E-1,3.9342698E-1,6.22514E-1,-9.107297E-1,1.6105148E0,3.9342698E-1,2.5612981E0,1.3108249E0,6.473178E-1,-9.484929E-1,-5.994868E-1,-3.7848666E-1,1.5005156E-1,-9.9564224E-1,-3.038E-1,8.343061E-1,3.0173697E0,-5.239709E-1,7.2419965E-1,2.482061E0,1.166148E0,1.0081404E0,3.059827E-1,1.5005156E-1,1.6080961E0,2.2436325E-1,1.5197065E0,1.5798952E-1,-5.239709E-1,7.929921E-2,-2.0723724E-1,-2.6285934E-1,-3.027903E-2,-7.141781E-2,2.4750715E-1,-3.0244586E-1,-3.915387E-2,-1.2272996E-1,-2.954277E-1,1.5907684E-1,-1.6190304E-1,3.9816286E-2,4.8570856E-1,-2.385707E-1,1.8726094E-2,-1.6433416E-1,1.01655625E-1,-3.915387E-2,-1.8248439E-1,4.323307E-2,4.470376E-1,-8.515794E-2,-2.8582606E-1,5.341682E-1,-1.210791E-1,6.2904876E-1,3.24593E-1],"split_indices":[1,7,1,1,0,3,7,0,8,7,8,9,8,7,8,9,7,9,0,7,8,8,5,7,0,0,2,9,1,7,1,6,0,5,1,0,1,7,9,0,0,0,0,0,0,0,0,0,0,0,0,0,0,0,0,0,0,0,0,0,0,0,0,0,0,0,0],"split_type":[0,0,0,0,0,0,0,0,0,0,0,0,0,0,0,0,0,0,0,0,0,0,0,0,0,0,0,0,0,0,0,0,0,0,0,0,0,0,0,0,0,0,0,0,0,0,0,0,0,0,0,0,0,0,0,0,0,0,0,0,0,0,0,0,0,0,0],"sum_hessian":[4.3443243E2,2.9379147E2,1.4064098E2,2.9184824E2,1.9432259E0,1.0031904E2,4.0321938E1,2.101113E2,8.173694E1,8.9145485E1,1.1173549E1,2.2832905E1,1.7489033E1,7.177791E1,9.959032E0,7.080629E1,1.8339193E1,9.716129E0,1.4574194E0,1.5181452E1,7.651452E0,1.4817097E1,2.6719356E0,5.951129E0,6.5826775E1,2.4290323E0,7.53E0,4.6758873E1,2.404742E1,1.1902258E1,6.4369354E0,7.894355E0,1.8217742E0,2.186129E0,1.2995323E1,1.7003226E0,5.951129E0,4.250807E0,1.0566291E1,1.2145162E0,1.4574194E0,3.0362904E0,2.9148388E0,1.3359678E0,1.0930645E0,6.4369354E0,1.0930645E0,1.9067904E1,2.7690968E1,5.5867743E0,1.8460646E1,1.0687742E1,1.2145162E0,4.8580647E0,1.578871E0,4.129355E0,3.765E0,1.0930645E0,1.0930645E0,7.53E0,5.4653225E0,1.4574194E0,4.4937096E0,1.0930645E0,3.157742E0,3.0362904E0,7.53E0],"tree_param":{"num_deleted":"0","num_feature":"10","num_nodes":"67","size_leaf_vector":"1"}},{"base_weights":[-6.602131E-1,-1.0118566E0,-6.7417584E-2,-3.2402065E-1,-8.345176E-1,-3.0576235E-1,3.1833512E-1,-8.578228E-1,6.225307E-2,-5.2396375E-1,4.5811363E-2,4.1532952E-1,-4.0545955E-1,-9.0315145E-1,-4.8505393E-1,-1.066776E-2,-6.244107E-1,-1.4136274E-1,7.5501686E-1,7.286053E-2,6.2550247E-1,3.2346696E-1,-2.6560435E-1,-9.356482E-1,-5.0380933E-1,2.4481934E-1,-8.160249E-1,-2.5435448E-1,4.293451E-1,-3.054689E-1,-8.8907444E-1,2.3890308E-1,-2.9965946E-1,1.2478288E0,-2.1917789E-1,-3.3058915E-1,5.254514E-1,9.210851E-1,2.549949E-1,2.0821717E-1,-5.7657916E-2,-7.6689914E-2,-2.8491148E-1,-3.5485767E-2,-2.4165627E-1,-1.828467E-1,2.6431638E-1,-2.7745634E-1,-4.3680385E-2,2.718149E-1,-1.3868171E-1,-1.498049E-1,2.2980894E-1,-2.9626137E-1,-3.9178446E-2,2.3110358E-1,-1.3480246E-1,-1.5130255E-1,1.2530282E-2,8.2809255E-2,5.244066E-1,9.492554E-2,-1.9610806E-1,8.310581E-2,-2.1503966E-1,-2.011111E-1,2.4589281E-1,3.739744E-1,-3.591555E-2,-7.321462E-2,5.085752E-1],"categories":[],"categories_nodes":[],"categories_segments":[],"categories_sizes":[],"default_left":[0,0,0,0,0,0,0,0,0,0,0,0,0,0,0,0,0,0,0,0,0,0,0,0,0,0,0,0,0,0,0,0,0,0,0,0,0,0,0,0,0,0,0,0,0,0,0,0,0,0,0,0,0,0,0,0,0,0,0,0,0,0,0,0,0,0,0,0,0,0,0],"id":1,"left_children":[1,3,5,-1,7,9,11,13,-1,15,17,19,21,23,25,27,29,31,33,35,37,39,-1,41,43,45,47,-1,49,51,53,55,57,59,61,63,65,67,69,-1,-1,-1,-1,-1,-1,-1,-1,-1,-1,-1,-1,-1,-1,-1,-1,-1,-1,-1,-1,-1,-1,-1,-1,-1,-1,-1,-1,-1,-1,-1,-1],"loss_changes":[7.69539E1,1.9032593E0,1.2844693E1,0E0,1.8488998E0,6.63723E0,3.9200358E0,7.023773E-1,0E0,2.7400503E0,4.6111965E0,3.3818636E0,2.6723957E0,2.94487E-1,2.4892557E0,3.9505522E0,3.4878807E0,1.7383784E0,3.7509904E0,3.6871173E0,2.9823437E0,7.9082775E-1,0E0,2.6774597E-1,6.7331266E-1,2.5622954E0,3.5794115E-1,0E0,3.4135656E0,4.894863E0,1.6496811E0,3.526503E0,1.4183804E0,1.9282341E0,9.710756E-1,2.7298253E0,3.8755732E0,5.55538E0,1.0777381E1,0E0,0E0,0E0,0E0,0E0,0E0,0E0,0E0,0E0,0E0,0E0,0E0,0E0,0E0,0E0,0E0,0E0,0E0,0E0,0E0,0E0,0E0,0E0,0E0,0E0,0E0,0E0,0E0,0E0,0E0,0E0,0E0],"parents":[2147483647,0,0,1,1,2,2,4,4,5,5,6,6,7,7,9,9,10,10,11,11,12,12,13,13,14,14,15,15,16,16,17,17,18,18,19,19,20,20,21,21,23,23,24,24,25,25,26,26,28,28,29,29,30,30,31,31,32,32,33,33,34,34,35,35,36,36,37,37,38,38],"right_children":[2,4,6,-1,8,10,12,14,-1,16,18,20,22,24,26,28,30,32,34,36,38,40,-1,42,44,46,48,-1,50,52,54,56,58,60,62,64,66,68,70,-1,-1,-1,-1,-1,-1,-1,-1,-1,-1,-1,-1,-1,-1,-1,-1,-1,-1,-1,-1,-1,-1,-1,-1,-1,-1,-1,-1,-1,-1,-1,-1],"split_conditions":[5.9161514E-1,6.1277233E-2,1.3429272E0,-3.2402065E-1,2.7376716E0,9.3159124E-2,6.8751407E-1,1.1989866E0,6.225307E-2,6.800048E-1,4.198834E0,-3.7898952E-1,1.5005156E-1,3.0173697E0,1.903608E0,-1.5748651E-1,-1.4864082E-3,-5.239709E-1,1.1219531E0,1.0081404E0,1.0081404E0,1.0081404E0,-2.6560435E-1,-1.0674871E0,1.0081404E0,8.343061E-1,5.032255E-1,-2.5435448E-1,-2.89493E-1,-1.4486417E-2,4.198834E0,2.193271E0,2.160965E0,2.4551377E-1,3.9342698E-1,1.5005156E-1,-9.6442765E-1,1.4151369E-1,3.235138E-1,2.0821717E-1,-5.7657916E-2,-7.6689914E-2,-2.8491148E-1,-3.5485767E-2,-2.4165627E-1,-1.828467E-1,2.6431638E-1,-2.7745634E-1,-4.3680385E-2,2.718149E-1,-1.3868171E-1,-1.498049E-1,2.2980894E-1,-2.9626137E-1,-3.9178446E-2,2.3110358E-1,-1.3480246E-1,-1.5130255E-1,1.2530282E-2,8.2809255E-2,5.244066E-1,9.492554E-2,-1.9610806E-1,8.310581E-2,-2.1503966E-1,-2.011111E-1,2.4589281E-1,3.739744E-1,-3.591555E-2,-7.321462E-2,5.085752E-1],"split_indices":[1,1,1,0,7,7,8,7,0,1,3,7,5,2,7,8,8,9,1,6,6,6,0,8,6,0,1,0,7,8,3,7,7,8,9,5,7,8,8,0,0,0,0,0,0,0,0,0,0,0,0,0,0,0,0,0,0,0,0,0,0,0,0,0,0,0,0,0,0,0,0],"split_type":[0,0,0,0,0,0,0,0,0,0,0,0,0,0,0,0,0,0,0,0,0,0,0,0,0,0,0,0,0,0,0,0,0,0,0,0,0,0,0,0,0,0,0,0,0,0,0,0,0,0,0,0,0,0,0,0,0,0,0,0,0,0,0,0,0,0,0,0,0,0,0],"sum_hessian":[3.6849448E2,2.3084901E2,1.3764545E2,1.630446E2,6.780441E1,8.52064E1,5.2439056E1,6.649403E1,1.3103782E0,5.2273148E1,3.2933247E1,4.661804E1,5.82102E0,5.8016422E1,8.4776125E0,8.736218E0,4.353693E1,2.66899E1,6.2433467E0,1.8241259E1,2.837678E1,2.4402914E0,3.3807287E0,5.240866E1,5.60776E0,2.7261262E0,5.7514863E0,2.690441E0,6.045778E0,2.072081E1,2.281612E1,7.6951456E0,1.8994755E1,3.959492E0,2.2838547E0,9.78672E0,8.454539E0,1.4957786E1,1.3418993E1,1.2185762E0,1.2217152E0,1.4499716E0,5.095869E1,3.0730731E0,2.5346866E0,1.181585E0,1.5445412E0,4.621735E0,1.129751E0,3.9289646E0,2.1168132E0,1.7998135E1,2.7226756E0,1.9927233E1,2.888887E0,4.2749023E0,3.4202435E0,1.1577183E1,7.4175715E0,1.872793E0,2.086699E0,1.1446799E0,1.1391747E0,3.9131067E0,5.8736134E0,1.4168148E0,7.0377245E0,1.1243754E1,3.7140315E0,1.0582683E1,2.8363109E0],"tree_param":{"num_deleted":"0","num_feature":"10","num_nodes":"71","size_leaf_vector":"1"}},{"base_weights":[-5.7374793E-1,-9.6503276E-1,-7.740477E-2,-3.1098634E-1,-7.734073E-1,-2.4187826E-1,2.4073614E-1,-8.322928E-1,-3.216214E-1,-3.87544E-1,1.1930728E-1,1.5922223E-1,8.609406E-1,-6.576621E-2,-8.46283E-1,1.0600742E-1,-2.4196398E-1,-6.242091E-1,1.0246135E-2,4.061281E-1,-3.037186E-1,-4.857132E-2,3.747152E-1,5.529994E-1,-2.561322E-1,-3.0850035E-1,-7.1411306E-1,-1.930666E-1,5.55813E-1,-2.979618E-1,-8.601338E-1,-7.389895E-1,2.0087832E-1,9.569555E-1,1.2683684E-1,4.0438056E-1,-6.619134E-1,4.292616E-1,-2.7800456E-1,3.6169478E-1,1.9456692E-1,1.0678124E-1,-2.0056348E-1,-7.6075695E-2,-2.8097486E-1,3.2255527E-2,2.5016057E-1,-1.4999014E-1,7.7882886E-2,-2.9207203E-1,8.26684E-2,-2.6256356E-1,-1.9785631E-2,2.3137657E-1,-9.3423516E-2,-1.0794933E-2,4.3608755E-1,-2.9309379E-2,2.6113093E-1,2.5893137E-1,-1.7698565E-1,-2.5003317E-1,-1.33078825E-2,-7.065683E-2,2.210626E-1,-2.5414458E-1,2.098759E-2,-1.9879591E-1,1.200876E-1],"categories":[],"categories_nodes":[],"categories_segments":[],"categories_sizes":[],"default_left":[0,0,0,0,0,0,0,0,0,0,0,0,0,0,0,0,0,0,0,0,0,0,0,0,0,0,0,0,0,0,0,0,0,0,0,0,0,0,0,0,0,0,0,0,0,0,0,0,0,0,0,0,0,0,0,0,0,0,0,0,0,0,0,0,0,0,0,0,0],"id":2,"left_children":[1,3,5,-1,7,9,11,13,15,17,19,21,23,-1,25,27,-1,29,31,33,35,37,39,-1,41,-1,43,-1,45,47,49,51,53,55,57,59,61,63,65,-1,67,-1,-1,-1,-1,-1,-1,-1,-1,-1,-1,-1,-1,-1,-1,-1,-1,-1,-1,-1,-1,-1,-1,-1,-1,-1,-1,-1,-1],"loss_changes":[6.1508873E1,1.6294861E0,7.429325E0,0E0,1.1194286E0,4.9581466E0,2.3153076E0,2.0471191E-1,1.6702156E0,6.2918167E0,3.4716165E0,1.992956E0,6.406959E0,0E0,3.2756996E-1,2.0248618E0,0E0,2.9669132E0,3.8460526E0,2.4744296E0,3.2409272E0,2.6777706E0,3.023324E0,0E0,1.0983691E0,0E0,2.7174768E0,0E0,3.624376E-1,2.2815294E0,3.3309078E0,4.4329214E-1,6.5001755E0,2.7766232E0,2.1468952E0,2.588496E0,8.278196E-1,1.8020424E0,3.3018765E0,0E0,3.6298282E0,0E0,0E0,0E0,0E0,0E0,0E0,0E0,0E0,0E0,0E0,0E0,0E0,0E0,0E0,0E0,0E0,0E0,0E0,0E0,0E0,0E0,0E0,0E0,0E0,0E0,0E0,0E0,0E0],"parents":[2147483647,0,0,1,1,2,2,4,4,5,5,6,6,7,7,8,8,9,9,10,10,11,11,12,12,14,14,15,15,17,17,18,18,19,19,20,20,21,21,22,22,24,24,26,26,28,28,29,29,30,30,31,31,32,32,33,33,34,34,35,35,36,36,37,37,38,38,40,40],"right_children":[2,4,6,-1,8,10,12,14,16,18,20,22,24,-1,26,28,-1,30,32,34,36,38,40,-1,42,-1,44,-1,46,48,50,52,54,56,58,60,62,64,66,-1,68,-1,-1,-1,-1,-1,-1,-1,-1,-1,-1,-1,-1,-1,-1,-1,-1,-1,-1,-1,-1,-1,-1,-1,-1,-1,-1,-1,-1],"split_conditions":[5.474203E-1,6.1277233E-2,1.4313169E0,-3.1098634E-1,3.0173697E0,1.5879691E0,1.388225E0,-1.0674871E0,1.0081404E0,3.9342698E-1,1.5005156E-1,-5.7675228E-2,1.5005156E-1,-6.576621E-2,-5.3486444E-2,3.264462E-1,-2.4196398E-1,-5.239709E-1,-4.6948674E-1,-5.239709E-1,-1.4864082E-3,-5.474868E-1,1.086573E-1,5.529994E-1,-2.3548657E-1,-3.0850035E-1,3.3651382E-1,-1.930666E-1,4.275139E-1,-1.325467E-1,1.388225E0,-7.972193E-2,-1.4864082E-3,5.18514E-1,1.2545376E0,2.511311E0,1.1685144E0,-9.634871E-1,-7.948646E-2,3.6169478E-1,-3.7848666E-1,1.0678124E-1,-2.0056348E-1,-7.6075695E-2,-2.8097486E-1,3.2255527E-2,2.5016057E-1,-1.4999014E-1,7.7882886E-2,-2.9207203E-1,8.26684E-2,-2.6256356E-1,-1.9785631E-2,2.3137657E-1,-9.3423516E-2,-1.0794933E-2,4.3608755E-1,-2.9309379E-2,2.6113093E-1,2.5893137E-1,-1.7698565E-1,-2.5003317E-1,-1.33078825E-2,-7.065683E-2,2.210626E-1,-2.5414458E-1,2.098759E-2,-1.9879591E-1,1.200876E-1],"split_indices":[1,1,1,0,2,7,4,8,6,9,5,7,5,0,8,1,0,9,8,9,8,8,7,0,8,0,8,0,8,7,4,7,8,8,1,7,8,8,8,0,8,0,0,0,0,0,0,0,0,0,0,0,0,0,0,0,0,0,0,0,0,0,0,0,0,0,0,0,0],"split_type":[0,0,0,0,0,0,0,0,0,0,0,0,0,0,0,0,0,0,0,0,0,0,0,0,0,0,0,0,0,0,0,0,0,0,0,0,0,0,0,0,0,0,0,0,0,0,0,0,0,0,0,0,0,0,0,0,0,0,0,0,0,0,0,0,0,0,0,0,0],"sum_hessian":[3.1609534E2,1.7622594E2,1.398694E2,1.2508609E2,5.1139843E1,9.236037E1,4.7509037E1,4.44978E1,6.6420455E0,6.5764595E1,2.6595772E1,4.310097E1,4.4080663E0,1.3646883E0,4.313311E1,3.944767E0,2.6972783E0,4.0876152E1,2.4888445E1,1.5873282E1,1.0722488E1,2.2336828E1,2.0764143E1,1.9994978E0,2.4085686E0,1.5290929E1,2.7842182E1,1.3178842E0,2.6268828E0,1.810403E1,2.277212E1,4.4646506E0,2.0423794E1,4.5241785E0,1.1349104E1,3.5586379E0,7.163851E0,6.9634075E0,1.5373421E1,2.685364E0,1.807878E1,1.0247122E0,1.3838564E0,9.765926E0,1.8076256E1,1.5364398E0,1.090443E0,1.3365198E1,4.7388315E0,2.0833868E1,1.9382514E0,3.4632916E0,1.0013587E0,9.42482E0,1.0998974E1,1.8177319E0,2.7064466E0,9.384122E0,1.9649823E0,2.5255024E0,1.0331354E0,5.3329835E0,1.8308672E0,2.2769794E0,4.6864276E0,5.288585E0,1.0084836E1,3.0691423E0,1.5009636E1],"tree_param":{"num_deleted":"0","num_feature":"10","num_nodes":"69","size_leaf_vector":"1"}},{"base_weights":[-4.932456E-1,-9.108709E-1,-6.5470815E-2,-2.9983395E-1,-6.943125E-1,-2.7530104E-1,9.3158364E-2,-7.606681E-1,-2.4054761E-1,-5.289268E-1,9.539767E-2,2.1749768E-2,7.0006865E-1,-1.8809406E-1,-8.1438255E-1,1.4638487E-1,-5.327441E-1,-2.5847042E-1,-7.453559E-1,8.633752E-1,-9.061115E-2,-3.6345724E-2,7.087701E-1,1.0584211E0,-1.3315414E-1,-2.0268473E-1,9.862862E-2,-5.6348447E-2,-2.5000548E-1,-2.4695666E-1,8.239472E-2,-4.5287514E-1,6.6576725E-1,-8.2030654E-1,-8.772394E-3,-9.415822E-2,1.4998373E0,6.537754E-1,-2.9933405E-1,4.891752E-2,-6.472409E-1,-2.8004462E-2,5.2435434E-1,8.5620275E-3,1.3775151E0,-2.509014E-1,-8.2881E-2,4.1401324E-1,-6.784343E-2,-3.0816825E-2,-2.589664E-1,9.4540365E-2,5.816201E-1,-5.466633E-2,2.9812106E-1,6.1350897E-2,-1.6286144E-1,1.13178864E-1,-1.394347E-2,-2.3433347E-1,-6.299806E-2,-1.5796152E-1,2.0895046E-1,6.308226E-1,5.9544668E-2],"categories":[],"categories_nodes":[],"categories_segments":[],"categories_sizes":[],"default_left":[0,0,0,0,0,0,0,0,0,0,0,0,0,0,0,0,0,0,0,0,0,0,0,0,0,0,0,0,0,0,0,0,0,0,0,0,0,0,0,0,0,0,0,0,0,0,0,0,0,0,0,0,0,0,0,0,0,0,0,0,0,0,0,0,0],"id":3,"left_children":[1,3,5,-1,7,9,11,13,15,17,19,21,23,25,27,-1,29,31,33,35,37,39,41,43,-1,-1,-1,-1,-1,-1,-1,45,47,49,-1,-1,51,53,55,57,59,61,-1,-1,63,-1,-1,-1,-1,-1,-1,-1,-1,-1,-1,-1,-1,-1,-1,-1,-1,-1,-1,-1,-1],"loss_changes":[4.9160187E1,1.9787064E0,4.591672E0,0E0,1.1334629E0,5.6268125E0,3.402793E0,1.0057144E0,1.7585846E0,1.877677E0,3.641175E0,2.8834035E0,3.8600922E0,1.3641051E0,2.4933815E-1,0E0,1.5165412E0,3.4014893E0,1.0020409E0,4.185704E0,3.4559314E0,3.5197172E0,4.359925E0,2.1273856E0,0E0,0E0,0E0,0E0,0E0,0E0,0E0,7.7460575E-1,2.480177E0,4.4309616E-1,0E0,0E0,1.1523747E0,1.5763333E0,2.206091E0,1.8873155E0,3.2017374E-1,1.9122953E0,0E0,0E0,3.8685913E0,0E0,0E0,0E0,0E0,0E0,0E0,0E0,0E0,0E0,0E0,0E0,0E0,0E0,0E0,0E0,0E0,0E0,0E0,0E0,0E0],"parents":[2147483647,0,0,1,1,2,2,4,4,5,5,6,6,7,7,8,8,9,9,10,10,11,11,12,12,13,13,14,14,16,16,17,17,18,18,19,19,20,20,21,21,22,22,23,23,31,31,32,32,33,33,36,36,37,37,38,38,39,39,40,40,41,41,44,44],"right_children":[2,4,6,-1,8,10,12,14,16,18,20,22,24,26,28,-1,30,32,34,36,38,40,42,44,-1,-1,-1,-1,-1,-1,-1,46,48,50,-1,-1,52,54,56,58,60,62,-1,-1,64,-1,-1,-1,-1,-1,-1,-1,-1,-1,-1,-1,-1,-1,-1,-1,-1,-1,-1,-1,-1],"split_conditions":[5.474203E-1,6.1277233E-2,1.0777582E0,-2.9983395E-1,1.4155146E0,9.3159124E-2,1.388225E0,-9.107297E-1,1.6105148E0,7.683945E-1,3.330534E-1,2.8383007E0,1.6522909E0,1.1513601E-2,-1.0674871E0,1.4638487E-1,3.0173697E0,9.085142E-1,-1.2490675E-1,-2.2248656E-1,6.3580996E-1,7.135141E-1,2.3251376E-1,-5.719527E-1,-1.3315414E-1,-2.0268473E-1,9.862862E-2,-5.6348447E-2,-2.5000548E-1,-2.4695666E-1,8.239472E-2,-3.3948666E-1,1.2855145E0,-8.0748695E-1,-8.772394E-3,-9.415822E-2,1.5005156E-1,1.6879432E0,-5.239709E-1,-5.915983E-1,1.7577941E0,4.198834E0,5.2435434E-1,8.5620275E-3,-1.4864082E-3,-2.509014E-1,-8.2881E-2,4.1401324E-1,-6.784343E-2,-3.0816825E-2,-2.589664E-1,9.4540365E-2,5.816201E-1,-5.466633E-2,2.9812106E-1,6.1350897E-2,-1.6286144E-1,1.13178864E-1,-1.394347E-2,-2.3433347E-1,-6.299806E-2,-1.5796152E-1,2.0895046E-1,6.308226E-1,5.9544668E-2],"split_indices":[1,1,1,0,8,7,4,7,8,1,7,7,1,8,8,0,2,8,7,8,1,8,8,7,0,0,0,0,0,0,0,8,8,8,0,0,5,7,9,7,7,3,0,0,8,0,0,0,0,0,0,0,0,0,0,0,0,0,0,0,0,0,0,0,0],"split_type":[0,0,0,0,0,0,0,0,0,0,0,0,0,0,0,0,0,0,0,0,0,0,0,0,0,0,0,0,0,0,0,0,0,0,0,0,0,0,0,0,0,0,0,0,0,0,0,0,0,0,0,0,0,0,0,0,0,0,0,0,0,0,0,0,0],"sum_hessian":[2.7451047E2,1.3833162E2,1.3617885E2,9.56104E1,4.2721222E1,5.831108E1,7.786776E1,3.6680904E1,6.040318E0,3.436933E1,2.394175E1,7.059718E1,7.270574E0,3.5320854E0,3.314882E1,1.5373924E0,4.5029254E0,1.6253153E1,1.811618E1,3.9581385E0,1.998361E1,6.596609E1,4.6310973E0,5.593155E0,1.6774193E0,1.6595552E0,1.8725302E0,1.2944524E0,3.1854364E1,3.2972405E0,1.205685E0,1.3849948E1,2.4032054E0,1.6268026E1,1.8481542E0,1.5668576E0,2.391281E0,3.9092937E0,1.6074316E1,5.869403E1,7.2720594E0,3.2790697E0,1.3520275E0,1.580738E0,4.012417E0,3.1893256E0,1.0660623E1,1.0305859E0,1.3726195E0,1.1095042E0,1.5158522E1,1.1108378E0,1.2804432E0,1.264288E0,2.6450057E0,5.290161E0,1.0784155E1,1.25484495E1,4.614558E1,4.965391E0,2.3066683E0,2.1043248E0,1.174745E0,1.9992349E0,2.013182E0],"tree_param":{"num_deleted":"0","num_feature":"10","num_nodes":"65","size_leaf_vector":"1"}},{"base_weights":[-4.1353983E-1,-8.393268E-1,-3.3227395E-2,-9.644249E-1,-5.9494764E-1,1.0240865E-1,-1.8794583E-1,-3.7757972E-1,-9.7598153E-1,-6.8629473E-1,-1.443137E-1,-9.969371E-2,9.240893E-1,-2.2977589E-1,3.012644E-1,-1.5763806E-1,-1.4603473E-2,-4.2055172E-1,-2.9641354E-1,-5.2686596E-1,-9.0667E-1,4.4653475E-1,-4.3622214E-1,-2.4514255E-1,5.6696147E-1,1.1561052E0,-1.3576536E-1,-3.7169507E-1,8.982921E-2,-1.7506224E-1,-8.340885E-3,-6.091782E-1,1.14405684E-1,-2.9271528E-1,-2.8748566E-2,-3.7695423E-2,2.50661E-1,-2.434779E-1,6.544946E-2,-5.2224594E-1,-9.0362124E-2,1.4145255E-1,4.1435313E-1,1.3223432E0,5.866426E-2,-5.986797E-1,-1.7241827E-1,6.134988E-1,-3.1100914E-1,-8.602695E-2,-2.2575524E-1,1.2977332E-1,-6.334479E-2,-2.1742631E-1,-4.2367935E-2,-1.6898362E-1,3.0671129E-2,1.571784E-1,-6.508543E-2,4.8683035E-1,1.1306429E-1,5.6309152E-2,-2.2355218E-1,-9.743057E-3,-2.2160225E-1,3.8613725E-2,4.9812222E-1,-1.9413872E-1,1.0185952E-1],"categories":[],"categories_nodes":[],"categories_segments":[],"categories_sizes":[],"default_left":[0,0,0,0,0,0,0,0,0,0,0,0,0,0,0,0,0,0,0,0,0,0,0,0,0,0,0,0,0,0,0,0,0,0,0,0,0,0,0,0,0,0,0,0,0,0,0,0,0,0,0,0,0,0,0,0,0,0,0,0,0,0,0,0,0,0,0,0,0],"id":4,"left_children":[1,3,5,7,9,11,13,15,17,19,21,23,25,27,-1,-1,-1,29,-1,31,33,35,37,39,41,43,-1,45,47,-1,-1,49,51,-1,-1,-1,-1,-1,-1,53,55,57,-1,59,-1,61,63,65,67,-1,-1,-1,-1,-1,-1,-1,-1,-1,-1,-1,-1,-1,-1,-1,-1,-1,-1,-1,-1],"loss_changes":[3.924344E1,2.9228745E0,2.72931E0,1.3362122E-1,1.6025219E0,1.162709E1,3.2567077E0,1.23297244E-1,6.677246E-2,7.204838E-1,1.6147949E0,5.632165E0,4.9339905E0,2.7293E0,0E0,0E0,0E0,1.9317669E-1,0E0,1.2401834E0,6.3029766E-1,8.2096237E-1,1.6549377E0,1.9773691E0,3.4244823E0,1.673418E0,0E0,1.7673378E0,4.1962557E0,0E0,0E0,6.997652E-1,4.3983376E-1,0E0,0E0,0E0,0E0,0E0,0E0,1.1868081E0,2.9263172E0,1.2070502E0,0E0,2.268736E0,0E0,2.3204265E0,1.8323164E0,4.1559887E0,2.7282395E0,0E0,0E0,0E0,0E0,0E0,0E0,0E0,0E0,0E0,0E0,0E0,0E0,0E0,0E0,0E0,0E0,0E0,0E0,0E0,0E0],"parents":[2147483647,0,0,1,1,2,2,3,3,4,4,5,5,6,6,7,7,8,8,9,9,10,10,11,11,12,12,13,13,17,17,19,19,20,20,21,21,22,22,23,23,24,24,25,25,27,27,28,28,31,31,32,32,39,39,40,40,41,41,43,43,45,45,46,46,47,47,48,48],"right_children":[2,4,6,8,10,12,14,16,18,20,22,24,26,28,-1,-1,-1,30,-1,32,34,36,38,40,42,44,-1,46,48,-1,-1,50,52,-1,-1,-1,-1,-1,-1,54,56,58,-1,60,-1,62,64,66,68,-1,-1,-1,-1,-1,-1,-1,-1,-1,-1,-1,-1,-1,-1,-1,-1,-1,-1,-1,-1],"split_conditions":[5.9161514E-1,6.1277233E-2,2.451361E-2,-1.0473756E0,1.1989866E0,-2.3656103E-3,3.1864638E0,-8.0748695E-1,-1.8656172E0,1.5005156E-1,1.903608E0,3.0173697E0,2.511311E0,8.435142E-1,3.012644E-1,-1.5763806E-1,-1.4603473E-2,-1.8832952E0,-2.9641354E-1,3.0173697E0,1.388225E0,4.1483584E-1,3.0173697E0,1.0777582E0,1.903608E0,-1.4864082E-3,-1.3576536E-1,1.166148E0,1.1425143E0,-1.7506224E-1,-8.340885E-3,-6.0316736E-1,3.8851386E-1,-2.9271528E-1,-2.8748566E-2,-3.7695423E-2,2.50661E-1,-2.434779E-1,6.544946E-2,-2.0948656E-1,-5.239709E-1,-4.7961852E-1,4.1435313E-1,4.198834E0,5.866426E-2,6.3580996E-1,1.3108249E0,4.198834E0,1.9355149E0,-8.602695E-2,-2.2575524E-1,1.2977332E-1,-6.334479E-2,-2.1742631E-1,-4.2367935E-2,-1.6898362E-1,3.0671129E-2,1.571784E-1,-6.508543E-2,4.8683035E-1,1.1306429E-1,5.6309152E-2,-2.2355218E-1,-9.743057E-3,-2.2160225E-1,3.8613725E-2,4.9812222E-1,-1.9413872E-1,1.0185952E-1],"split_indices":[1,1,8,7,7,8,7,8,1,5,7,2,7,8,0,0,0,1,0,2,4,1,2,1,7,8,0,1,8,0,0,7,8,0,0,0,0,0,0,8,9,7,0,3,0,1,9,3,8,0,0,0,0,0,0,0,0,0,0,0,0,0,0,0,0,0,0,0,0],"split_type":[0,0,0,0,0,0,0,0,0,0,0,0,0,0,0,0,0,0,0,0,0,0,0,0,0,0,0,0,0,0,0,0,0,0,0,0,0,0,0,0,0,0,0,0,0,0,0,0,0,0,0,0,0,0,0,0,0,0,0,0,0,0,0,0,0,0,0,0,0],"sum_hessian":[2.4151724E2,1.1337682E2,1.2814041E2,7.3040726E1,4.03361E1,6.846112E1,5.9679287E1,2.0608895E0,7.0979836E1,3.3102924E1,7.233179E0,5.5651604E1,1.2809518E1,5.843616E1,1.2431242E0,1.0094153E0,1.0514742E0,2.2711844E0,6.870865E1,2.1174883E1,1.192804E1,2.2166915E0,5.0164876E0,4.620337E1,9.448234E0,1.1099099E1,1.7104185E0,4.035412E1,1.8082043E1,1.2617692E0,1.0094153E0,1.8810461E1,2.3644226E0,1.0804626E1,1.1234134E0,1.1711004E0,1.0455912E0,3.0351975E0,1.9812902E0,1.5707725E1,3.0495646E1,6.9762006E0,2.4720328E0,9.140555E0,1.9585439E0,1.792852E1,2.24256E1,7.609795E0,1.0472248E1,6.7124E0,1.2098061E1,1.0295154E0,1.3349072E0,9.667428E0,6.040296E0,8.268411E0,2.2227236E1,3.1513553E0,3.8248453E0,6.392832E0,2.7477233E0,2.7712529E0,1.5157267E1,1.8829525E1,3.5960736E0,5.9688E0,1.6409951E0,6.908187E0,3.5640614E0],"tree_param":{"num_deleted":"0","num_feature":"10","num_nodes":"69","size_leaf_vector":"1"}},{"base_weights":[-3.4544697E-1,-7.963042E-1,-3.8445126E-2,-9.294132E-1,-5.320337E-1,-1.3527483E-1,1.175387E-1,-1.02267615E-1,-9.435768E-1,-8.611141E-1,-3.506175E-1,-4.9603504E-1,-4.66658E-2,-8.339777E-2,2.2458357E-1,-3.781631E-1,-9.585163E-1,-2.4161924E-2,-2.8216964E-1,1.8486775E-1,-6.554284E-1,-5.986785E-1,4.0869005E-2,2.8336713E-1,-2.3228297E-1,2.604417E-1,-3.8851652E-1,2.8702405E-1,-3.3502445E-1,-1.6137195E-1,-7.115764E-3,-3.0297372E-1,-6.926766E-1,5.543454E-1,-4.9663416E-1,-2.8255457E-1,-9.952818E-2,-6.6055454E-2,-7.3929983E-1,3.8621187E-1,-2.1412304E-1,-4.3942776E-1,1.2623546E-1,-1.4000441E-1,4.9770334E-1,-7.834156E-1,1.1978313E-1,4.1055107E-1,-1.3348258E-1,-2.0303188E-1,5.465753E-2,-1.5281348E-2,-2.7463895E-1,2.6258644E-1,-7.476273E-2,-2.6465641E-2,-1.9258247E-1,1.0760323E-1,-1.5320419E-1,-1.947819E-1,1.6442731E-1,-1.3407326E-1,-2.7855116E-1,-1.2990598E-1,1.6406588E-1,-3.9437965E-2,-1.7338234E-1,1.7148802E-1,-9.284085E-2,5.0979006E-1,6.493925E-3,-2.7251792E-1,-3.888094E-2,-1.5111607E-1,2.0608589E-1,1.9545113E-1,-6.606496E-2,-2.2564147E-1,1.4180146E-1],"categories":[],"categories_nodes":[],"categories_segments":[],"categories_sizes":[],"default_left":[0,0,0,0,0,0,0,0,0,0,0,0,0,0,0,0,0,0,0,0,0,0,0,0,0,0,0,0,0,0,0,0,0,0,0,0,0,0,0,0,0,0,0,0,0,0,0,0,0,0,0,0,0,0,0,0,0,0,0,0,0,0,0,0,0,0,0,0,0,0,0,0,0,0,0,0,0,0,0],"id":5,"left_children":[1,3,5,7,9,11,13,-1,15,17,19,21,23,25,27,29,31,-1,-1,33,35,37,-1,39,41,43,45,47,49,-1,-1,-1,51,53,55,-1,57,59,61,63,-1,65,67,-1,69,71,73,75,77,-1,-1,-1,-1,-1,-1,-1,-1,-1,-1,-1,-1,-1,-1,-1,-1,-1,-1,-1,-1,-1,-1,-1,-1,-1,-1,-1,-1,-1,-1],"loss_changes":[3.0086393E1,2.604309E0,1.9868773E0,1.5550995E-1,1.5993366E0,2.5654814E0,1.1052833E0,0E0,1.0493469E-1,5.835309E-1,3.7473075E0,1.1111016E0,4.116018E0,2.0197012E0,1.2572471E0,1.6140601E-1,2.8125763E-2,0E0,0E0,2.5008867E0,2.195434E0,9.872856E-1,0E0,2.7624087E0,3.2388766E0,1.8188494E0,2.119244E0,1.6355538E0,7.9443145E-1,0E0,0E0,0E0,1.6421261E0,1.8180954E0,1.5907556E-1,0E0,1.3148404E0,1.7841357E0,1.8506289E-1,3.2157612E0,0E0,1.092473E0,3.3738418E0,0E0,4.206479E0,3.571155E-1,2.212894E0,3.7557726E0,3.2296839E0,0E0,0E0,0E0,0E0,0E0,0E0,0E0,0E0,0E0,0E0,0E0,0E0,0E0,0E0,0E0,0E0,0E0,0E0,0E0,0E0,0E0,0E0,0E0,0E0,0E0,0E0,0E0,0E0,0E0,0E0],"parents":[2147483647,0,0,1,1,2,2,3,3,4,4,5,5,6,6,8,8,9,9,10,10,11,11,12,12,13,13,14,14,15,15,16,16,19,19,20,20,21,21,23,23,24,24,25,25,26,26,27,27,28,28,32,32,33,33,34,34,36,36,37,37,38,38,39,39,41,41,42,42,44,44,45,45,46,46,47,47,48,48],"right_children":[2,4,6,8,10,12,14,-1,16,18,20,22,24,26,28,30,32,-1,-1,34,36,38,-1,40,42,44,46,48,50,-1,-1,-1,52,54,56,-1,58,60,62,64,-1,66,68,-1,70,72,74,76,78,-1,-1,-1,-1,-1,-1,-1,-1,-1,-1,-1,-1,-1,-1,-1,-1,-1,-1,-1,-1,-1,-1,-1,-1,-1,-1,-1,-1,-1,-1],"split_conditions":[5.474203E-1,6.1277233E-2,1.4313169E0,-1.0473756E0,-6.6486456E-2,-3.2648665E-1,-4.302863E-1,-1.02267615E-1,-1.8656172E0,-1.0674871E0,3.3651382E-1,2.3137639E0,-1.4864082E-3,1.5005156E-1,6.35514E-1,-1.8832952E0,-2.4808656E-1,-2.4161924E-2,-2.8216964E-1,-7.972193E-2,1.4155146E0,-6.407122E-1,4.0869005E-2,2.7376716E0,8.955142E-1,-7.2948694E-1,1.0081404E0,4.198834E0,2.129532E0,-1.6137195E-1,-7.115764E-3,-3.0297372E-1,-1.596969E-1,1.5005156E-1,-1.4864082E-3,-2.8255457E-1,1.8315148E0,1.0081404E0,1.5005156E-1,-7.860895E-1,-2.1412304E-1,-5.239709E-1,1.2855145E0,-1.4000441E-1,-5.474868E-1,4.9251392E-1,1.6080961E0,2.0963528E0,4.4481492E-1,-2.0303188E-1,5.465753E-2,-1.5281348E-2,-2.7463895E-1,2.6258644E-1,-7.476273E-2,-2.6465641E-2,-1.9258247E-1,1.0760323E-1,-1.5320419E-1,-1.947819E-1,1.6442731E-1,-1.3407326E-1,-2.7855116E-1,-1.2990598E-1,1.6406588E-1,-3.9437965E-2,-1.7338234E-1,1.7148802E-1,-9.284085E-2,5.0979006E-1,6.493925E-3,-2.7251792E-1,-3.888094E-2,-1.5111607E-1,2.0608589E-1,1.9545113E-1,-6.606496E-2,-2.2564147E-1,1.4180146E-1],"split_indices":[1,1,1,7,8,8,7,0,1,8,8,7,8,5,8,1,1,0,0,7,8,7,0,7,8,8,6,3,7,0,0,0,1,5,8,0,8,6,5,7,0,9,8,0,8,8,1,7,7,0,0,0,0,0,0,0,0,0,0,0,0,0,0,0,0,0,0,0,0,0,0,0,0,0,0,0,0,0,0],"split_type":[0,0,0,0,0,0,0,0,0,0,0,0,0,0,0,0,0,0,0,0,0,0,0,0,0,0,0,0,0,0,0,0,0,0,0,0,0,0,0,0,0,0,0,0,0,0,0,0,0,0,0,0,0,0,0,0,0,0,0,0,0,0,0,0,0,0,0,0,0,0,0,0,0,0,0,0,0,0,0],"sum_hessian":[2.1658644E2,8.709157E1,1.2949487E2,5.6244953E1,3.084661E1,7.997916E1,4.951571E1,1.9109265E0,5.433403E1,9.630577E0,2.1216034E1,1.4864058E1,6.5115105E1,1.7286924E1,3.2228786E1,2.0760245E0,5.2258003E1,1.0757267E0,8.55485E0,7.8386903E0,1.3377343E1,1.283372E1,2.0303373E0,2.324974E1,4.186536E1,8.196586E0,9.090338E0,2.9431902E1,2.7968838E0,1.0742614E0,1.001763E0,4.1446087E1,1.0811917E1,5.2039437E0,2.6347463E0,8.370355E0,5.0069885E0,2.9875793E0,9.846141E0,2.1631298E1,1.6184434E0,2.6391312E1,1.54740505E1,1.7786633E0,6.417922E0,4.811233E0,4.279105E0,2.2767462E1,6.66444E0,1.4983585E0,1.2985253E0,3.1028283E0,7.709089E0,3.654895E0,1.5490485E0,1.1131463E0,1.5216001E0,2.428356E0,2.5786328E0,1.503039E0,1.4845403E0,5.1891212E0,4.6570196E0,3.2689352E0,1.8362362E1,8.792134E0,1.7599178E1,7.4977036E0,7.9763465E0,1.0920329E0,5.325889E0,3.7122512E0,1.0989816E0,2.0916142E0,2.187491E0,1.6450508E1,6.316954E0,3.1790192E0,3.485421E0],"tree_param":{"num_deleted":"0","num_feature":"10","num_nodes":"79","size_leaf_vector":"1"}},{"base_weights":[-2.9349962E-1,-7.3755246E-1,-4.1871723E-2,-9.4148797E-1,-5.256675E-1,-2.2776444E-1,-2.3584811E-2,-6.431471E-2,-9.666625E-1,-2.692793E-1,-7.7748656E-1,-5.985185E-2,3.4705135E-1,-1.0225321E-1,-2.9802844E-1,1.6885798E-1,-3.6739618E-1,-8.543743E-1,-2.2007197E-1,-1.2207725E-1,2.6955503E-1,4.9242762E-1,-1.134499E-1,-5.165566E-1,2.1572666E-1,-6.608472E-2,-2.7062118E-1,6.890631E-2,-1.7668214E-1,-6.3173294E-1,-6.5381676E-2,6.41175E-1,3.138984E-2,-1.09232046E-1,7.0766866E-1,-6.552204E-2,-2.656421E-1,-1.6359508E-1,1.7781213E-1,-3.6254954E-2,-2.84686E-1,2.1455102E-1,-3.1186968E-2,-1.263682E-1,3.119216E-1,-2.1235017E-1,5.4137763E-2,1.8244214E-2,2.818507E-1],"categories":[],"categories_nodes":[],"categories_segments":[],"categories_sizes":[],"default_left":[0,0,0,0,0,0,0,0,0,0,0,0,0,0,0,0,0,0,0,0,0,0,0,0,0,0,0,0,0,0,0,0,0,0,0,0,0,0,0,0,0,0,0,0,0,0,0,0,0],"id":6,"left_children":[1,3,5,7,9,-1,11,-1,13,15,17,19,21,-1,-1,-1,23,25,27,29,31,33,-1,35,37,-1,-1,-1,-1,39,41,43,45,-1,47,-1,-1,-1,-1,-1,-1,-1,-1,-1,-1,-1,-1,-1,-1],"loss_changes":[2.2302782E1,2.6264687E0,1.6696279E0,4.43388E-1,2.224144E0,0E0,1.7208583E0,0E0,2.3208046E-1,1.8565716E0,6.042309E-1,2.4117813E0,1.3902133E0,0E0,0E0,0E0,1.7362099E0,2.8209877E-1,7.3047686E-1,2.7992496E0,1.639529E0,2.0915694E0,0E0,1.475162E0,1.6172402E0,0E0,0E0,0E0,0E0,1.4614701E0,2.7715638E0,3.5173614E0,1.5028969E0,0E0,1.1859589E0,0E0,0E0,0E0,0E0,0E0,0E0,0E0,0E0,0E0,0E0,0E0,0E0,0E0,0E0],"parents":[2147483647,0,0,1,1,2,2,3,3,4,4,6,6,8,8,9,9,10,10,11,11,12,12,16,16,17,17,18,18,19,19,20,20,21,21,23,23,24,24,29,29,30,30,31,31,32,32,34,34],"right_children":[2,4,6,8,10,-1,12,-1,14,16,18,20,22,-1,-1,-1,24,26,28,30,32,34,-1,36,38,-1,-1,-1,-1,40,42,44,46,-1,48,-1,-1,-1,-1,-1,-1,-1,-1,-1,-1,-1,-1,-1,-1],"split_conditions":[5.474203E-1,-2.4808656E-1,-1.053051E0,-1.0473756E0,1.0081404E0,-2.2776444E-1,1.388225E0,-6.431471E-2,-1.8656172E0,-1.596969E-1,4.5903066E-1,1.6080961E0,1.6522909E0,-1.0225321E-1,-2.9802844E-1,1.6885798E-1,3.0173697E0,-9.107297E-1,5.032255E-1,-6.644869E-1,-3.1348664E-1,-5.239709E-1,-1.134499E-1,3.9342698E-1,3.264462E-1,-6.608472E-2,-2.7062118E-1,6.890631E-2,-1.7668214E-1,-9.3748707E-1,-9.436906E-1,-5.239709E-1,-1.8348654E-1,-1.09232046E-1,-5.719527E-1,-6.552204E-2,-2.656421E-1,-1.6359508E-1,1.7781213E-1,-3.6254954E-2,-2.84686E-1,2.1455102E-1,-3.1186968E-2,-1.263682E-1,3.119216E-1,-2.1235017E-1,5.4137763E-2,1.8244214E-2,2.818507E-1],"split_indices":[1,1,7,7,6,0,4,0,1,1,1,1,1,0,0,0,2,7,1,8,8,9,0,9,1,0,0,0,0,8,7,9,8,0,7,0,0,0,0,0,0,0,0,0,0,0,0,0,0],"split_type":[0,0,0,0,0,0,0,0,0,0,0,0,0,0,0,0,0,0,0,0,0,0,0,0,0,0,0,0,0,0,0,0,0,0,0,0,0,0,0,0,0,0,0,0,0,0,0,0,0],"sum_hessian":[1.9887872E2,7.1236E1,1.2764273E2,3.4544315E1,3.669169E1,2.165849E0,1.25476875E2,1.4744428E0,3.3069874E1,1.9206266E1,1.748542E1,1.1505698E2,1.04199E1,1.9196645E0,3.115021E1,1.5261561E0,1.768011E1,1.4897737E1,2.587684E0,9.730528E1,1.7751696E1,8.947324E0,1.4725764E0,1.4169711E1,3.510399E0,1.4352634E0,1.3462473E1,1.3360105E0,1.2516735E0,8.725577E0,8.8579704E1,6.272416E0,1.1479279E1,1.6579642E0,7.2893596E0,8.716926E0,5.452786E0,1.0149305E0,2.4954686E0,3.8714979E0,4.8540792E0,3.345462E0,8.5234245E1,1.6956546E0,4.5767612E0,1.2973695E0,1.018191E1,2.2562795E0,5.03308E0],"tree_param":{"num_deleted":"0","num_feature":"10","num_nodes":"49","size_leaf_vector":"1"}},{"base_weights":[-2.4086672E-1,-8.3688843E-1,-8.9147106E-2,-5.13959E-1,-8.919334E-1,-3.6875668E-1,-2.7653143E-2,-2.5210893E-1,1.9453521E-1,-2.9229903E-1,-6.013308E-1,-4.8966214E-1,7.767491E-2,-2.0962285E-1,-1.2013002E-2,2.914049E-1,-1.7265272E-1,6.421403E-2,-2.6247773E-1,-2.0813417E-1,-7.089804E-1,1.8152347E-1,-2.6217917E-1,-7.4499115E-2,1.2057178E-1,2.364161E-1,-1.8406145E-1,1.7065066E-1,-6.462967E-1,-1.5279898E-1,-2.4958056E-1,-5.553608E-1,1.1345632E-1,-2.7818577E-2,-6.242594E-1,-5.425736E-1,2.06351E-1,1.724224E-1,-1.9436581E-1,-2.3414518E-1,-3.362319E-2,1.13158084E-1,-1.7532827E-1,-1.9849025E-1,-4.15633E-2,-1.4944624E-2,2.440375E-1,-2.366127E-1,-1.2867344E-2,9.543561E-2,-2.650755E-1,2.0274365E-1,1.9674333E-2],"categories":[],"categories_nodes":[],"categories_segments":[],"categories_sizes":[],"default_left":[0,0,0,0,0,0,0,0,0,0,0,0,0,0,0,0,0,0,0,0,0,0,0,0,0,0,0,0,0,0,0,0,0,0,0,0,0,0,0,0,0,0,0,0,0,0,0,0,0,0,0,0,0],"id":7,"left_children":[1,3,5,7,9,11,13,-1,15,-1,17,19,21,-1,23,-1,-1,25,-1,27,29,-1,31,33,35,-1,-1,37,39,41,-1,43,-1,45,47,49,51,-1,-1,-1,-1,-1,-1,-1,-1,-1,-1,-1,-1,-1,-1,-1,-1],"loss_changes":[1.6743534E1,2.1025848E-1,2.5580444E0,1.9760752E0,1.511097E-1,1.4871035E0,1.2880572E0,0E0,2.5235264E0,0E0,1.769907E0,1.1652522E0,1.3388216E0,0E0,1.0174278E0,0E0,0E0,2.2856164E0,0E0,1.8905058E0,6.6177225E-1,0E0,1.0927696E0,2.1216702E0,2.351662E0,0E0,0E0,2.5368795E0,2.840116E-1,9.7844607E-1,0E0,6.9144845E-2,0E0,1.4816113E0,5.853913E-1,1.6855649E0,2.30754E0,0E0,0E0,0E0,0E0,0E0,0E0,0E0,0E0,0E0,0E0,0E0,0E0,0E0,0E0,0E0,0E0],"parents":[2147483647,0,0,1,1,2,2,3,3,4,4,5,5,6,6,8,8,10,10,11,11,12,12,14,14,17,17,19,19,20,20,22,22,23,23,24,24,27,27,28,28,29,29,31,31,33,33,34,34,35,35,36,36],"right_children":[2,4,6,8,10,12,14,-1,16,-1,18,20,22,-1,24,-1,-1,26,-1,28,30,-1,32,34,36,-1,-1,38,40,42,-1,44,-1,46,48,50,52,-1,-1,-1,-1,-1,-1,-1,-1,-1,-1,-1,-1,-1,-1,-1,-1],"split_conditions":[1.0547206E-1,-7.74957E-1,5.9161514E-1,-1.4486417E-2,-2.4808656E-1,1.1989866E0,-1.053051E0,-2.5210893E-1,5.44514E-1,-2.9229903E-1,-1.596969E-1,3.7064102E-1,1.903608E0,-2.0962285E-1,1.5879691E0,2.914049E-1,-1.7265272E-1,1.0251366E-1,-2.6247773E-1,1.0081404E0,-7.574942E-1,1.8152347E-1,2.6374793E0,7.6700234E-1,-4.044867E-1,2.364161E-1,-1.8406145E-1,3.9342698E-1,-8.758016E-2,5.032255E-1,-2.4958056E-1,5.032255E-1,1.1345632E-1,6.172594E-1,1.5639013E0,-8.59487E-1,-2.7486427E-2,1.724224E-1,-1.9436581E-1,-2.3414518E-1,-3.362319E-2,1.13158084E-1,-1.7532827E-1,-1.9849025E-1,-4.15633E-2,-1.4944624E-2,2.440375E-1,-2.366127E-1,-1.2867344E-2,9.543561E-2,-2.650755E-1,2.0274365E-1,1.9674333E-2],"split_indices":[1,7,1,8,1,7,7,0,8,0,1,1,7,0,7,0,0,8,0,6,7,0,7,7,8,0,0,9,7,1,0,1,0,7,1,8,8,0,0,0,0,0,0,0,0,0,0,0,0,0,0,0,0],"split_type":[0,0,0,0,0,0,0,0,0,0,0,0,0,0,0,0,0,0,0,0,0,0,0,0,0,0,0,0,0,0,0,0,0,0,0,0,0,0,0,0,0,0,0,0,0,0,0,0,0,0,0,0,0],"sum_hessian":[1.849834E2,3.661753E1,1.4836588E2,6.838067E0,2.9779465E1,2.5846529E1,1.2251934E2,4.5539374E0,2.2841296E0,2.1368034E1,8.41143E0,2.0262163E1,5.5843654E0,1.7956364E0,1.207237E2,1.0069282E0,1.2772015E0,2.6734095E0,5.738021E0,9.726169E0,1.05359955E1,1.8825381E0,3.7018273E0,8.235063E1,3.8373074E1,1.2140536E0,1.4593558E0,5.543998E0,4.182171E0,2.3135335E0,8.222462E0,2.6303225E0,1.0715048E0,7.6873825E1,5.4768095E0,3.7851853E0,3.4587887E1,3.9110537E0,1.6329442E0,2.9741364E0,1.2080345E0,1.0950488E0,1.2184848E0,1.6279117E0,1.0024108E0,7.583183E1,1.0419863E0,3.9911926E0,1.4856167E0,1.0931847E0,2.6920006E0,7.10205E0,2.7485836E1],"tree_param":{"num_deleted":"0","num_feature":"10","num_nodes":"53","size_leaf_vector":"1"}},{"base_weights":[-1.9695286E-1,-7.887751E-1,-7.336572E-2,-4.5043483E-1,-8.533555E-1,-3.1785807E-1,-2.3134727E-2,-2.3900689E-1,1.4906807E-1,-2.8667197E-1,-5.3624755E-1,-7.2905874E-1,-1.6361132E-1,-5.2438095E-2,2.598193E-1,2.847796E-1,-1.785869E-1,4.322103E-2,-2.503222E-1,-1.0029355E-2,-2.550306E-1,-3.0222958E-1,2.108107E-1,-1.4653872E-1,5.2915324E-2,1.8538378E-2,6.5295523E-1,1.7008469E-1,-1.6999292E-1,7.54197E-2,-6.533999E-1,2.3287939E-1,-1.7797902E-1,-2.3788856E-1,2.2499229E-1,4.541761E-1,-2.3765815E-2,-2.7391824E-1,6.068387E-1,2.8207907E-2,2.676114E-1,1.0527622E-1,-1.9083704E-1,-2.5862446E-1,1.3627923E-3,-1.9241004E-1,9.928127E-2,-1.4595623E-2,-1.5278596E-1,-7.981587E-2,1.805697E-1,2.7416658E-1,-2.1000924E-2,-1.1780997E-1,2.502352E-2,3.78594E-2,-1.9159524E-1,2.1881427E-1,5.4644648E-2],"categories":[],"categories_nodes":[],"categories_segments":[],"categories_sizes":[],"default_left":[0,0,0,0,0,0,0,0,0,0,0,0,0,0,0,0,0,0,0,0,0,0,0,0,0,0,0,0,0,0,0,0,0,0,0,0,0,0,0,0,0,0,0,0,0,0,0,0,0,0,0,0,0,0,0,0,0,0,0],"id":8,"left_children":[1,3,5,7,9,11,13,-1,15,-1,17,19,21,23,25,-1,-1,27,-1,-1,-1,29,31,33,35,37,39,-1,-1,41,43,-1,45,47,49,51,53,55,57,-1,-1,-1,-1,-1,-1,-1,-1,-1,-1,-1,-1,-1,-1,-1,-1,-1,-1,-1,-1],"loss_changes":[1.2810633E1,2.7748108E-1,1.79365E0,1.5662216E0,2.758236E-1,1.461014E0,1.0312661E0,0E0,2.5874362E0,0E0,1.4539812E0,5.194981E-1,1.0710318E0,1.118572E0,1.0963514E0,0E0,0E0,1.5154618E0,0E0,0E0,0E0,1.9822304E0,1.4204987E0,2.0712054E0,1.6599472E0,1.5891986E0,5.061096E-1,0E0,0E0,1.7756655E0,1.0550675E0,0E0,1.2192111E0,2.4508696E0,2.4266744E0,2.1481266E0,1.8496338E0,9.873408E-1,2.6251674E-2,0E0,0E0,0E0,0E0,0E0,0E0,0E0,0E0,0E0,0E0,0E0,0E0,0E0,0E0,0E0,0E0,0E0,0E0,0E0,0E0],"parents":[2147483647,0,0,1,1,2,2,3,3,4,4,5,5,6,6,8,8,10,10,11,11,12,12,13,13,14,14,17,17,21,21,22,22,23,23,24,24,25,25,26,26,29,29,30,30,32,32,33,33,34,34,35,35,36,36,37,37,38,38],"right_children":[2,4,6,8,10,12,14,-1,16,-1,18,20,22,24,26,-1,-1,28,-1,-1,-1,30,32,34,36,38,40,-1,-1,42,44,-1,46,48,50,52,54,56,58,-1,-1,-1,-1,-1,-1,-1,-1,-1,-1,-1,-1,-1,-1,-1,-1,-1,-1,-1,-1],"split_conditions":[1.0547206E-1,-7.74957E-1,5.9161514E-1,-1.4486417E-2,-2.4808656E-1,-2.0948656E-1,1.388225E0,-2.3900689E-1,4.0151387E-1,-2.8667197E-1,-1.596969E-1,-1.0024871E0,1.1989866E0,2.7237311E-2,3.0173697E0,2.847796E-1,-1.785869E-1,1.0251366E-1,-2.503222E-1,-1.0029355E-2,-2.550306E-1,3.3651382E-1,1.903608E0,1.6080961E0,2.6473048E-1,1.3108249E0,1.4313169E0,1.7008469E-1,-1.6999292E-1,-7.972193E-2,1.5845147E0,2.3287939E-1,3.0173697E0,-1.4864082E-3,1.0081404E0,1.0335634E0,1.6879432E0,-2.523847E-1,-2.89493E-1,2.8207907E-2,2.676114E-1,1.0527622E-1,-1.9083704E-1,-2.5862446E-1,1.3627923E-3,-1.9241004E-1,9.928127E-2,-1.4595623E-2,-1.5278596E-1,-7.981587E-2,1.805697E-1,2.7416658E-1,-2.1000924E-2,-1.1780997E-1,2.502352E-2,3.78594E-2,-1.9159524E-1,2.1881427E-1,5.4644648E-2],"split_indices":[1,7,1,8,1,8,4,0,8,0,1,8,7,7,2,0,0,8,0,0,0,8,7,1,7,9,1,0,0,7,8,0,2,8,6,1,7,7,7,0,0,0,0,0,0,0,0,0,0,0,0,0,0,0,0,0,0,0,0],"split_type":[0,0,0,0,0,0,0,0,0,0,0,0,0,0,0,0,0,0,0,0,0,0,0,0,0,0,0,0,0,0,0,0,0,0,0,0,0,0,0,0,0,0,0,0,0,0,0,0,0,0,0,0,0,0,0,0,0,0,0],"sum_hessian":[1.7493953E2,2.9291048E1,1.4564848E2,5.9729996E0,2.3318048E1,2.391545E1,1.2173303E2,3.577707E0,2.3952923E0,1.6111282E1,7.206766E0,5.5072637E0,1.8408186E1,1.11047386E2,1.0685645E1,1.0216837E0,1.3736086E0,2.7388654E0,4.4679008E0,1.0054126E0,4.501851E0,1.3575196E1,4.832989E0,5.8449738E1,5.2597652E1,7.270591E0,3.4150543E0,1.5113469E0,1.2275186E0,6.9193482E0,6.655848E0,1.5630617E0,3.2699277E0,4.720336E1,1.1246374E1,7.648948E0,4.4948704E1,5.213326E0,2.057265E0,1.4405675E0,1.9744867E0,5.353395E0,1.5659534E0,4.817575E0,1.8382732E0,1.5752991E0,1.6946286E0,2.8506218E1,1.8697144E1,5.0114384E0,6.2349358E0,3.6789722E0,3.9699762E0,9.518712E0,3.5429993E1,2.797944E0,2.4153817E0,1.039794E0,1.0174711E0],"tree_param":{"num_deleted":"0","num_feature":"10","num_nodes":"59","size_leaf_vector":"1"}},{"base_weights":[-1.589924E-1,-7.608002E-1,-6.0487423E-2,-1.8074082E-2,-7.9265994E-1,-1.6759463E-1,3.4956705E-2,-3.4605406E-2,-8.2608515E-1,-5.8204603E-1,-5.662804E-2,1.5642528E-1,-8.952267E-2,-2.8315136E-1,-4.6598566E-1,1.6460636E-1,-7.358686E-1,2.5113967E-1,-1.8411653E-1,6.755423E-2,8.942666E-1,4.445777E-3,-3.921458E-1,-3.946175E-2,-2.3084506E-1,-1.7839324E-1,2.8003886E-1,-1.4952411E-2,-2.3849037E-1,-4.9240027E-2,7.156126E-1,-4.995436E-1,-4.34243E-2,1.4708124E-1,-4.4033274E-1,1.8935708E-2,4.1176924E-1,-8.685511E-2,6.197075E-1,2.1731067E-1,-7.2508574E-1,1.319675E-1,-1.7578863E-1,2.3519515E-1,-6.622334E-2,-3.2590695E-2,2.7352577E-1,8.156814E-2,-2.0443355E-1,-7.6393686E-2,1.0418389E-1,6.6670603E-3,1.044329E-1,-1.9656743E-1,6.1045907E-2,-9.579017E-2,5.0713457E-2,3.2309684E-1,-2.1843392E-2,2.2310947E-1,-1.8722816E-1,-2.9220453E-1,7.101262E-2],"categories":[],"categories_nodes":[],"categories_segments":[],"categories_sizes":[],"default_left":[0,0,0,0,0,0,0,0,0,0,0,0,0,0,0,0,0,0,0,0,0,0,0,0,0,0,0,0,0,0,0,0,0,0,0,0,0,0,0,0,0,0,0,0,0,0,0,0,0,0,0,0,0,0,0,0,0,0,0,0,0,0,0],"id":9,"left_children":[1,3,5,-1,7,9,11,-1,13,15,17,19,21,-1,23,25,27,29,31,33,35,37,39,41,-1,-1,-1,-1,-1,43,45,47,49,51,53,-1,-1,55,57,59,61,-1,-1,-1,-1,-1,-1,-1,-1,-1,-1,-1,-1,-1,-1,-1,-1,-1,-1,-1,-1,-1,-1],"loss_changes":[9.861304E0,4.749918E-1,1.4851264E0,0E0,4.10017E-1,3.1108537E0,1.1834891E0,0E0,4.5522404E-1,1.7668724E0,2.2054024E0,2.5303686E0,1.106101E0,0E0,8.986435E-1,2.461025E0,4.4950914E-1,2.343042E0,1.7307E0,1.5327426E0,1.5693355E0,1.7740046E0,2.0269656E0,1.3154914E0,0E0,0E0,0E0,0E0,0E0,1.7422111E0,1.1596887E0,1.881114E0,2.4323707E0,7.9981834E-1,8.487282E-1,0E0,0E0,1.6922795E0,1.3704251E0,2.246481E0,1.7122288E0,0E0,0E0,0E0,0E0,0E0,0E0,0E0,0E0,0E0,0E0,0E0,0E0,0E0,0E0,0E0,0E0,0E0,0E0,0E0,0E0,0E0,0E0],"parents":[2147483647,0,0,1,1,2,2,4,4,5,5,6,6,8,8,9,9,10,10,11,11,12,12,14,14,15,15,16,16,17,17,18,18,19,19,20,20,21,21,22,22,23,23,29,29,30,30,31,31,32,32,33,33,34,34,37,37,38,38,39,39,40,40],"right_children":[2,4,6,-1,8,10,12,-1,14,16,18,20,22,-1,24,26,28,30,32,34,36,38,40,42,-1,-1,-1,-1,-1,44,46,48,50,52,54,-1,-1,56,58,60,62,-1,-1,-1,-1,-1,-1,-1,-1,-1,-1,-1,-1,-1,-1,-1,-1,-1,-1,-1,-1,-1,-1],"split_conditions":[6.1277233E-2,-1.8656172E0,1.0777582E0,-1.8074082E-2,-1.0473756E0,-2.0948656E-1,1.5005156E-1,-3.4605406E-2,-2.4808656E-1,-9.894871E-1,-1.4864082E-3,8.305142E-1,2.0963528E0,-2.8315136E-1,-1.596969E-1,-1.1324872E0,-9.552597E-1,-2.3656103E-3,-4.7612596E-1,4.5351392E-1,3.0173697E0,1.7577941E0,-2.7486427E-2,1.0081404E0,-2.3084506E-1,-1.7839324E-1,2.8003886E-1,-1.4952411E-2,-2.3849037E-1,-1.8348654E-1,5.9161514E-1,2.8225136E-1,3.9342698E-1,3.9342698E-1,2.3995495E0,1.8935708E-2,4.1176924E-1,-2.3656103E-3,1.0081404E0,2.7376716E0,2.8383007E0,1.319675E-1,-1.7578863E-1,2.3519515E-1,-6.622334E-2,-3.2590695E-2,2.7352577E-1,8.156814E-2,-2.0443355E-1,-7.6393686E-2,1.0418389E-1,6.6670603E-3,1.044329E-1,-1.9656743E-1,6.1045907E-2,-9.579017E-2,5.0713457E-2,3.2309684E-1,-2.1843392E-2,2.2310947E-1,-1.8722816E-1,-2.9220453E-1,7.101262E-2],"split_indices":[1,1,1,0,7,8,5,0,1,8,8,8,7,0,1,8,7,8,7,8,2,7,8,6,0,0,0,0,0,8,1,1,9,9,7,0,0,8,6,7,7,0,0,0,0,0,0,0,0,0,0,0,0,0,0,0,0,0,0,0,0,0,0],"split_type":[0,0,0,0,0,0,0,0,0,0,0,0,0,0,0,0,0,0,0,0,0,0,0,0,0,0,0,0,0,0,0,0,0,0,0,0,0,0,0,0,0,0,0,0,0,0,0,0,0,0,0,0,0,0,0,0,0,0,0,0,0,0,0],"sum_hessian":[1.661246E2,2.2421131E1,1.4370348E2,1.1010697E0,2.132006E1,6.7358246E1,7.634523E1,1.2119926E0,2.0108068E1,1.3329264E1,5.4028984E1,3.8510017E1,3.783521E1,1.3931435E1,6.1766334E0,2.2649794E0,1.1064284E1,1.5541244E1,3.848774E1,3.534443E1,3.1655874E0,2.9622381E1,8.212828E0,3.0376554E0,3.138978E0,1.253614E0,1.0113654E0,1.0237621E0,1.0040522E1,9.980641E0,5.5606017E0,1.1084983E1,2.7402758E1,3.1173553E1,4.1708765E0,1.5697558E0,1.5958316E0,2.654248E1,3.0799012E0,3.024213E0,5.1886144E0,1.722164E0,1.3154914E0,1.0940719E0,8.88657E0,1.1546202E0,4.4059815E0,2.02067E0,9.064313E0,1.8012907E1,9.389851E0,1.9915E1,1.12585535E1,3.1138346E0,1.0570419E0,1.37788105E1,1.2763669E1,1.5206277E0,1.5592736E0,1.9317942E0,1.0924188E0,4.1117225E0,1.0768923E0],"tree_param":{"num_deleted":"0","num_feature":"10","num_nodes":"63","size_leaf_vector":"1"}},{"base_weights":[-1.2635587E-1,-7.067562E-1,-4.578757E-2,-1.5395067E-2,-7.427312E-1,-3.131188E-2,-2.1787125E-1,-2.9521963E-2,-7.811539E-1,-5.1115148E-2,5.990309E-1,-2.7643234E-1,-4.1506034E-1,-2.0893939E-1,-3.683728E-2,2.490674E-3,3.0337745E-1,4.394873E-2,-6.206331E-1,8.068081E-2,-8.150783E-2,-2.2763123E-1,-2.6459638E-2,7.188305E-2,-1.19898655E-1,-1.421665E-2,-1.8241495E-1],"categories":[],"categories_nodes":[],"categories_segments":[],"categories_sizes":[],"default_left":[0,0,0,0,0,0,0,0,0,0,0,0,0,0,0,0,0,0,0,0,0,0,0,0,0,0,0],"id":10,"left_children":[1,3,5,-1,7,9,-1,-1,11,13,15,-1,17,-1,19,-1,-1,-1,21,23,25,-1,-1,-1,-1,-1,-1],"loss_changes":[7.4262238E0,4.1869164E-1,1.3673718E0,0E0,3.7594986E-1,1.7686521E0,0E0,0E0,4.9666214E-1,1.2266852E0,1.043499E0,0E0,8.4842193E-1,0E0,7.10169E-1,0E0,0E0,0E0,3.004098E-1,2.9521983E0,1.7247744E0,0E0,0E0,0E0,0E0,0E0,0E0],"parents":[2147483647,0,0,1,1,2,2,4,4,5,5,8,8,9,9,10,10,12,12,14,14,18,18,19,19,20,20],"right_children":[2,4,6,-1,8,10,-1,-1,12,14,16,-1,18,-1,20,-1,-1,-1,22,24,26,-1,-1,-1,-1,-1,-1],"split_conditions":[6.1277233E-2,-1.8656172E0,2.7285154E0,-1.5395067E-2,-1.0473756E0,1.9355149E0,-2.1787125E-1,-2.9521963E-2,-2.4808656E-1,-1.053051E0,2.0616457E0,-2.7643234E-1,-3.2648665E-1,-2.0893939E-1,-5.239709E-1,2.490674E-3,3.0337745E-1,4.394873E-2,1.5005156E-1,2.0963528E0,1.2855145E0,-2.2763123E-1,-2.6459638E-2,7.188305E-2,-1.19898655E-1,-1.421665E-2,-1.8241495E-1],"split_indices":[1,1,8,0,7,8,0,0,1,7,7,0,8,0,9,0,0,0,5,7,8,0,0,0,0,0,0],"split_type":[0,0,0,0,0,0,0,0,0,0,0,0,0,0,0,0,0,0,0,0,0,0,0,0,0,0,0],"sum_hessian":[1.5850143E2,1.8373041E1,1.4012839E2,1.0822201E0,1.7290821E1,1.3823366E2,1.8947248E0,1.173479E0,1.6117342E1,1.3491402E2,3.3196397E0,1.0555512E1,5.5618296E0,1.8860619E0,1.3302795E2,1.783703E0,1.5359367E0,1.5674522E0,3.9943774E0,3.641699E1,9.661097E1,2.83401E0,1.1603675E0,2.7739943E1,8.677047E0,9.175539E1,4.8555884E0],"tree_param":{"num_deleted":"0","num_feature":"10","num_nodes":"27","size_leaf_vector":"1"}},{"base_weights":[-1.0099401E-1,-6.4731985E-1,-3.6651254E-2,-1.3111756E-2,-6.867245E-1,3.890099E-2,-1.3623604E-1,-2.5175715E-2,-7.2962135E-1,-1.8965945E-2,3.573748E-1,-2.2549273E-1,1.4095655E-1,-2.685822E-1,-3.612128E-1,6.027616E-2,-4.1511106E-1,3.199981E-1,1.3093658E-1,-5.956469E-1,-1.3078482E-1,6.21269E-1,-1.8500713E-1,2.6599914E-2,-2.101692E-1,1.5970064E-2,7.037416E-1,-6.398743E-1,5.8294997E-2,4.916037E-1,-4.9224472E-1,-2.5709245E-1,-2.71664E-1,6.430694E-1,-2.1329391E-1,3.9945632E-1,1.7261393E-1,2.616939E-1,-5.099128E-1,1.4023626E-1,-1.6401401E-1,-9.104721E-3,1.3578567E-1,-7.383442E-2,4.1844317E-1,-2.3697266E-1,1.7942872E-2,2.1669596E-1,-1.0992224E-1,-1.4100027E-2,2.1190853E-1,6.092881E-2,-2.520112E-1,-2.1613635E-1,5.2184485E-2,4.081232E-1,-9.413013E-2,-1.7898765E-1,-2.6383845E-2,2.476013E-1,-1.4784305E-1,-2.0396818E-1,2.3604743E-1,1.6382843E-2,-2.1439904E-1],"categories":[],"categories_nodes":[],"categories_segments":[],"categories_sizes":[],"default_left":[0,0,0,0,0,0,0,0,0,0,0,0,0,0,0,0,0,0,0,0,0,0,0,0,0,0,0,0,0,0,0,0,0,0,0,0,0,0,0,0,0,0,0,0,0,0,0,0,0,0,0,0,0,0,0,0,0,0,0,0,0,0,0,0,0],"id":11,"left_children":[1,3,5,-1,7,9,11,-1,13,15,17,19,21,-1,23,25,27,-1,29,31,33,35,37,39,-1,41,43,45,47,49,51,53,-1,55,57,-1,59,61,63,-1,-1,-1,-1,-1,-1,-1,-1,-1,-1,-1,-1,-1,-1,-1,-1,-1,-1,-1,-1,-1,-1,-1,-1,-1,-1],"loss_changes":[5.4319816E0,3.5751486E-1,1.0579621E0,0E0,3.3250332E-1,1.4872282E0,1.5305573E0,0E0,5.361867E-1,2.1888208E0,1.852283E0,1.5419698E0,2.5213938E0,0E0,8.1420404E-1,1.6512346E0,1.2733638E0,0E0,2.6112113E0,7.25369E-1,2.5682364E0,1.8234165E0,1.5741944E0,1.2120999E0,0E0,1.1378487E0,2.7938797E0,8.828995E-1,1.5777955E0,8.633785E-1,1.2259505E0,1.2759563E0,0E0,3.1157422E0,1.6368265E0,0E0,2.6209452E0,2.9285483E0,7.42496E-1,0E0,0E0,0E0,0E0,0E0,0E0,0E0,0E0,0E0,0E0,0E0,0E0,0E0,0E0,0E0,0E0,0E0,0E0,0E0,0E0,0E0,0E0,0E0,0E0,0E0,0E0],"parents":[2147483647,0,0,1,1,2,2,4,4,5,5,6,6,8,8,9,9,10,10,11,11,12,12,14,14,15,15,16,16,18,18,19,19,20,20,21,21,22,22,23,23,25,25,26,26,27,27,28,28,29,29,30,30,31,31,33,33,34,34,36,36,37,37,38,38],"right_children":[2,4,6,-1,8,10,12,-1,14,16,18,20,22,-1,24,26,28,-1,30,32,34,36,38,40,-1,42,44,46,48,50,52,54,-1,56,58,-1,60,62,64,-1,-1,-1,-1,-1,-1,-1,-1,-1,-1,-1,-1,-1,-1,-1,-1,-1,-1,-1,-1,-1,-1,-1,-1,-1,-1],"split_conditions":[6.1277233E-2,-1.8656172E0,1.5005156E-1,-1.3111756E-2,-1.0473756E0,9.7351426E-1,3.0173697E0,-2.5175715E-2,-2.4808656E-1,4.5351392E-1,1.0515143E0,-7.0117694E-1,-1.7336583E-1,-2.685822E-1,-1.596969E-1,3.6251384E-1,1.9843731E0,3.199981E-1,1.0081404E0,-8.214515E-1,-5.915983E-1,-5.239709E-1,-1.4864082E-3,-1.7773151E-1,-2.101692E-1,1.6522909E0,1.0081404E0,1.5197065E0,7.2419965E-1,-6.553346E-2,8.343061E-1,-9.552597E-1,-2.71664E-1,6.351364E-2,-3.0048662E-1,3.9945632E-1,-6.9637465E-1,1.903608E0,6.720487E-1,1.4023626E-1,-1.6401401E-1,-9.104721E-3,1.3578567E-1,-7.383442E-2,4.1844317E-1,-2.3697266E-1,1.7942872E-2,2.1669596E-1,-1.0992224E-1,-1.4100027E-2,2.1190853E-1,6.092881E-2,-2.520112E-1,-2.1613635E-1,5.2184485E-2,4.081232E-1,-9.413013E-2,-1.7898765E-1,-2.6383845E-2,2.476013E-1,-1.4784305E-1,-2.0396818E-1,2.3604743E-1,1.6382843E-2,-2.1439904E-1],"split_indices":[1,1,5,0,7,8,2,0,1,8,8,7,7,0,1,8,7,0,6,7,7,9,8,7,0,1,6,1,1,7,0,7,0,8,8,0,7,7,7,0,0,0,0,0,0,0,0,0,0,0,0,0,0,0,0,0,0,0,0,0,0,0,0,0,0],"split_type":[0,0,0,0,0,0,0,0,0,0,0,0,0,0,0,0,0,0,0,0,0,0,0,0,0,0,0,0,0,0,0,0,0,0,0,0,0,0,0,0,0,0,0,0,0,0,0,0,0,0,0,0,0,0,0,0,0,0,0,0,0,0,0,0,0],"sum_hessian":[1.5420282E2,1.5292842E1,1.3890997E2,1.0664073E0,1.4226435E1,7.933219E1,5.9577785E1,1.1415256E0,1.3084909E1,6.7929756E1,1.140244E1,4.5207405E1,1.437038E1,8.039767E0,5.0451417E0,5.7313087E1,1.0616666E1,1.8613682E0,9.541072E0,8.1326475E0,3.7074757E1,5.4434414E0,8.926939E0,2.7845526E0,2.2605891E0,5.4579792E1,2.7332964E0,6.960384E0,3.6562824E0,6.1771665E0,3.363906E0,4.76101E0,3.3716373E0,2.917505E0,3.415725E1,1.3455449E0,4.0978966E0,3.8408492E0,5.08609E0,1.6784999E0,1.1060528E0,5.018656E1,4.393229E0,1.4222772E0,1.3110192E0,5.625208E0,1.3351756E0,1.1529193E0,2.5033631E0,1.9835811E0,4.1935854E0,1.2602782E0,2.103628E0,1.970897E0,2.7901134E0,1.4263726E0,1.4911324E0,7.4904895E0,2.6666761E1,1.947373E0,2.1505234E0,1.2696267E0,2.5712223E0,1.548893E0,3.5371974E0],"tree_param":{"num_deleted":"0","num_feature":"10","num_nodes":"65","size_leaf_vector":"1"}},{"base_weights":[-7.993358E-2,-5.887889E-1,-2.739531E-2,-2.529424E-1,-3.5773247E-1,-1.5941668E-2,-1.9395287E-1,-6.6541624E-1,1.264752E-1,-4.9781144E-2,2.08581E-1,-2.3585868E-1,-4.410159E-2,-1.937448E-1,2.6395E-1,-1.3710807E-1,5.9897278E-2,-1.0738937E-1,3.7348548E-1,-3.5673842E-1,-6.518629E-2,-4.589731E-2,1.8523172E-1,2.8882053E-1,-4.2140695E-1,6.705522E-1,1.4175849E-1,-1.7318313E-1,9.084586E-3,3.7656683E-2,-6.5136805E-2,2.2330752E-2,-1.6210993E-1,1.7691936E-1,-4.178137E-3,-6.913764E-2,2.3034477E-1,7.366703E-2,-2.2232501E-1,3.0743496E-2,3.061689E-1,-1.8341288E-2,2.022834E-1],"categories":[],"categories_nodes":[],"categories_segments":[],"categories_sizes":[],"default_left":[0,0,0,0,0,0,0,0,0,0,0,0,0,0,0,0,0,0,0,0,0,0,0,0,0,0,0,0,0,0,0,0,0,0,0,0,0,0,0,0,0,0,0],"id":12,"left_children":[1,3,5,-1,7,9,-1,11,13,15,17,-1,-1,-1,-1,19,21,23,25,27,29,31,33,35,37,39,41,-1,-1,-1,-1,-1,-1,-1,-1,-1,-1,-1,-1,-1,-1,-1,-1],"loss_changes":[4.0060353E0,5.229831E-1,9.6414113E-1,0E0,1.4382921E0,1.0432746E0,0E0,2.4240851E-1,3.111791E0,1.1474891E0,9.7792643E-1,0E0,0E0,0E0,0E0,1.027606E0,7.1686935E-1,9.862691E-1,7.344297E-1,1.3991294E0,1.5148207E0,1.811622E0,1.9941431E0,1.0887271E0,1.095207E0,8.9202905E-1,9.096356E-1,0E0,0E0,0E0,0E0,0E0,0E0,0E0,0E0,0E0,0E0,0E0,0E0,0E0,0E0,0E0,0E0],"parents":[2147483647,0,0,1,1,2,2,4,4,5,5,7,7,8,8,9,9,10,10,15,15,16,16,17,17,18,18,19,19,20,20,21,21,22,22,23,23,24,24,25,25,26,26],"right_children":[2,4,6,-1,8,10,-1,12,14,16,18,-1,-1,-1,-1,20,22,24,26,28,30,32,34,36,38,40,42,-1,-1,-1,-1,-1,-1,-1,-1,-1,-1,-1,-1,-1,-1,-1,-1],"split_conditions":[6.1277233E-2,8.343061E-1,2.7285154E0,-2.529424E-1,1.5005156E-1,9.7351426E-1,-1.9395287E-1,-2.0389172E-1,-6.3848686E-1,1.3429272E0,9.119726E-3,-2.3585868E-1,-4.410159E-2,-1.937448E-1,2.6395E-1,-2.3548657E-1,-2.3656103E-3,7.2419965E-1,1.2855145E0,9.893686E-1,-1.4864082E-3,-1.7048652E-1,6.351364E-2,5.032255E-1,-7.345744E-1,8.343061E-1,2.143515E0,-1.7318313E-1,9.084586E-3,3.7656683E-2,-6.5136805E-2,2.2330752E-2,-1.6210993E-1,1.7691936E-1,-4.178137E-3,-6.913764E-2,2.3034477E-1,7.366703E-2,-2.2232501E-1,3.0743496E-2,3.061689E-1,-1.8341288E-2,2.022834E-1],"split_indices":[1,0,8,0,5,8,0,1,8,1,7,0,0,0,0,8,8,1,8,1,8,8,8,1,7,0,8,0,0,0,0,0,0,0,0,0,0,0,0,0,0,0,0],"split_type":[0,0,0,0,0,0,0,0,0,0,0,0,0,0,0,0,0,0,0,0,0,0,0,0,0,0,0,0,0,0,0,0,0,0,0,0,0,0,0,0,0,0,0],"sum_hessian":[1.494492E2,1.30310545E1,1.3641814E2,4.941864E0,8.0891905E0,1.3494736E2,1.4707832E0,4.7173634E0,3.3718276E0,1.17948715E2,1.6998644E1,3.4070423E0,1.310321E0,1.7354811E0,1.6363463E0,6.552613E1,5.242258E1,5.9488816E0,1.1049763E1,1.5187472E1,5.033866E1,2.8770908E1,2.3651672E1,2.6656957E0,3.283186E0,4.0123453E0,7.0374174E0,9.3614025E0,5.82607E0,2.239837E1,2.794029E1,2.3822878E1,4.948031E0,7.156147E0,1.6495525E1,1.5280288E0,1.137667E0,1.138892E0,2.1442938E0,2.0225294E0,1.989816E0,5.7368155E0,1.3006017E0],"tree_param":{"num_deleted":"0","num_feature":"10","num_nodes":"43","size_leaf_vector":"1"}},{"base_weights":[-6.411643E-2,-5.3080547E-1,-2.099449E-2,-2.4195695E-1,-3.079163E-1,-1.8958306E-1,-9.43774E-3,-6.486229E-1,2.457243E-1,2.9652411E-4,-1.7645112E-1,-9.629117E-3,-2.3586054E-1,2.1819004E-1,-1.5941876E-1,-1.614291E-2,3.48808E-1,-2.9002542E-2,3.3985773E-1,1.1626926E-2,2.1715869E-1,-2.7818033E-3,-1.0219873E-1,-1.09402955E-1,2.3436055E-1,1.8117471E-1,-1.4471065E-1],"categories":[],"categories_nodes":[],"categories_segments":[],"categories_sizes":[],"default_left":[0,0,0,0,0,0,0,0,0,0,0,0,0,0,0,0,0,0,0,0,0,0,0,0,0,0,0],"id":13,"left_children":[1,3,5,-1,7,-1,9,11,13,15,-1,-1,-1,-1,-1,17,19,21,23,25,-1,-1,-1,-1,-1,-1,-1],"loss_changes":[2.9401972E0,5.11446E-1,9.4926566E-1,0E0,1.7540948E0,0E0,7.539075E-1,4.4198442E-1,1.863219E0,7.652271E-1,0E0,0E0,0E0,0E0,0E0,5.9384894E-1,7.524239E-1,7.595516E-1,1.6921802E0,1.5156397E0,0E0,0E0,0E0,0E0,0E0,0E0,0E0],"parents":[2147483647,0,0,1,1,2,2,4,4,6,6,7,7,8,8,9,9,15,15,16,16,17,17,18,18,19,19],"right_children":[2,4,6,-1,8,-1,10,12,14,16,-1,-1,-1,-1,-1,18,20,22,24,26,-1,-1,-1,-1,-1,-1,-1],"split_conditions":[6.1277233E-2,-6.3848686E-1,-1.053051E0,-2.4195695E-1,1.5005156E-1,-1.8958306E-1,2.7285154E0,-2.744866E-1,2.715138E-1,1.7145147E0,-1.7645112E-1,-9.629117E-3,-2.3586054E-1,2.1819004E-1,-1.5941876E-1,3.0181668E0,8.567841E-1,1.1425143E0,1.9351372E-1,8.343061E-1,2.1715869E-1,-2.7818033E-3,-1.0219873E-1,-1.09402955E-1,2.3436055E-1,1.8117471E-1,-1.4471065E-1],"split_indices":[1,8,7,0,5,0,8,8,8,8,0,0,0,0,0,7,1,8,8,0,0,0,0,0,0,0,0],"split_type":[0,0,0,0,0,0,0,0,0,0,0,0,0,0,0,0,0,0,0,0,0,0,0,0,0,0,0],"sum_hessian":[1.4565387E2,1.1363418E1,1.3429045E2,3.909189E0,7.4542284E0,1.4964913E0,1.3279396E2,4.5082955E0,2.9459329E0,1.3158028E2,1.2136883E0,1.0474972E0,3.4607983E0,1.8584026E0,1.0875303E0,1.2656388E2,5.0163913E0,1.2303797E2,3.5259068E0,3.1844816E0,1.8319099E0,1.1668114E2,6.3568354E0,1.424938E0,2.1009688E0,1.3469771E0,1.8375045E0],"tree_param":{"num_deleted":"0","num_feature":"10","num_nodes":"27","size_leaf_vector":"1"}},{"base_weights":[-5.1777646E-2,-4.7556663E-1,-1.6460493E-2,-1.6452762E-1,-6.9138366E-1,-1.7480293E-1,-6.7278855E-3,-3.9216843E-1,1.3522638E-1,-2.3817275E-1,-7.058997E-2,5.2534085E-2,-8.724359E-2,-2.2490057E-1,1.4172831E-1,-1.8522504E-1,7.175182E-2,-1.5621726E-1,2.0564067E-1,2.6274806E-1,4.0381484E-2,-6.1056566E-1,-4.2470466E-2,6.262462E-1,-7.6595545E-2,1.5543604E-1,4.7746785E-3,-2.4570069E-1,8.929172E-3,1.8228224E-1,-4.237899E-2,-2.3592095E-4,2.786012E-1,-1.9156764E-1,8.7463856E-2],"categories":[],"categories_nodes":[],"categories_segments":[],"categories_sizes":[],"default_left":[0,0,0,0,0,0,0,0,0,0,0,0,0,0,0,0,0,0,0,0,0,0,0,0,0,0,0,0,0,0,0,0,0,0,0],"id":14,"left_children":[1,3,5,7,9,-1,11,13,-1,-1,-1,15,17,-1,-1,-1,19,21,23,-1,25,27,29,31,33,-1,-1,-1,-1,-1,-1,-1,-1,-1,-1],"loss_changes":[2.1552036E0,6.3011956E-1,7.3693705E-1,9.963671E-1,1.0450339E-1,0E0,6.4004594E-1,1.8396864E0,0E0,0E0,0E0,1.0400283E0,1.1803635E0,0E0,0E0,0E0,1.8836248E0,2.38104E0,1.385349E0,0E0,8.598367E-1,1.2590227E0,2.5470786E0,8.7928224E-1,1.7652926E0,0E0,0E0,0E0,0E0,0E0,0E0,0E0,0E0,0E0,0E0],"parents":[2147483647,0,0,1,1,2,2,3,3,4,4,6,6,7,7,11,11,12,12,16,16,17,17,18,18,20,20,21,21,22,22,23,23,24,24],"right_children":[2,4,6,8,10,-1,12,14,-1,-1,-1,16,18,-1,-1,-1,20,22,24,-1,26,28,30,32,34,-1,-1,-1,-1,-1,-1,-1,-1,-1,-1],"split_conditions":[6.1277233E-2,-4.9140584E-1,-1.053051E0,-5.9727365E-1,-2.0389172E-1,-1.7480293E-1,1.5005156E-1,1.9481568E0,1.3522638E-1,-2.3817275E-1,-7.058997E-2,-1.1584872E0,1.6080961E0,-2.2490057E-1,1.4172831E-1,-1.8522504E-1,-9.3748707E-1,-3.0048662E-1,-4.9548677E-1,2.6274806E-1,-9.751235E-1,3.0173697E0,-1.7048652E-1,1.0081404E0,-2.3656103E-3,1.5543604E-1,4.7746785E-3,-2.4570069E-1,8.929172E-3,1.8228224E-1,-4.237899E-2,-2.3592095E-4,2.786012E-1,-1.9156764E-1,8.7463856E-2],"split_indices":[1,7,7,7,1,0,5,5,0,0,0,8,1,0,0,0,8,8,8,0,7,2,8,6,8,0,0,0,0,0,0,0,0,0,0],"split_type":[0,0,0,0,0,0,0,0,0,0,0,0,0,0,0,0,0,0,0,0,0,0,0,0,0,0,0,0,0,0,0,0,0,0,0],"sum_hessian":[1.4351985E2,1.0081468E1,1.3343839E2,4.851605E0,5.2298627E0,1.2601119E0,1.3217827E2,3.8060653E0,1.0455395E0,3.6652277E0,1.564635E0,7.633843E1,5.5839844E1,2.7867172E0,1.019348E0,1.2607257E0,7.5077705E1,4.5573902E1,1.0265943E1,1.8083245E0,7.326938E1,8.250495E0,3.7323406E1,3.632981E0,6.6329613E0,2.5864887E0,7.068289E1,6.013863E0,2.236632E0,4.244352E0,3.3079056E1,1.5066216E0,2.1263595E0,2.3346317E0,4.2983294E0],"tree_param":{"num_deleted":"0","num_feature":"10","num_nodes":"35","size_leaf_vector":"1"}},{"base_weights":[-4.133922E-2,-5.291919E-1,-1.87993E-2,3.1693563E-2,-2.354675E-1,-2.0187916E-1,9.457683E-3,-6.6559136E-1,7.006174E-2,3.295582E-1,-3.270162E-2,-1.7418772E-2,-7.628818E-1,-3.3949655E-1,4.9872392E-1,6.2316185E-1,-2.3039758E-1,-3.534658E-1,2.0018194E-2,-2.6518634E-1,-2.7582193E-2,-6.1180275E-2,-2.3381409E-1,9.8523194E-1,-8.859588E-2,3.5092208E-1,3.8415235E-1,2.050693E-1,-2.2091012E-1,-5.812146E-1,2.786444E-1,7.514228E-1,-6.345804E-3,6.471195E-2,-1.2628095E-1,4.023005E-1,1.0164901E-1,7.9050586E-2,-1.643107E-1,2.511055E-1,7.973749E-6,-5.492347E-2,1.4963664E-1,-2.0857175E-1,1.9251175E-2,2.8811312E-1,6.7990504E-2,-1.9915856E-1,1.0814676E-2],"categories":[],"categories_nodes":[],"categories_segments":[],"categories_sizes":[],"default_left":[0,0,0,0,0,0,0,0,0,0,0,0,0,0,0,0,0,0,0,0,0,0,0,0,0,0,0,0,0,0,0,0,0,0,0,0,0,0,0,0,0,0,0,0,0,0,0,0,0],"id":15,"left_children":[1,3,5,-1,-1,7,9,11,13,15,17,-1,19,21,23,25,27,29,31,-1,-1,33,-1,35,37,39,-1,41,-1,43,-1,45,47,-1,-1,-1,-1,-1,-1,-1,-1,-1,-1,-1,-1,-1,-1,-1,-1],"loss_changes":[1.5550463E0,1.0972046E0,7.1102977E-1,0E0,0E0,2.363421E0,1.6261712E0,3.627572E-1,2.3613086E0,2.4486887E0,1.8111069E0,0E0,3.942423E-1,8.068616E-1,1.946149E0,1.2449949E0,1.3745013E0,4.9531903E0,1.7897353E0,0E0,0E0,6.2475026E-1,0E0,3.8286734E-1,7.690809E-1,1.376929E0,0E0,5.207305E-1,0E0,1.0342531E0,0E0,1.3642251E-1,2.5421531E0,0E0,0E0,0E0,0E0,0E0,0E0,0E0,0E0,0E0,0E0,0E0,0E0,0E0,0E0,0E0,0E0],"parents":[2147483647,0,0,1,1,2,2,5,5,6,6,7,7,8,8,9,9,10,10,12,12,13,13,14,14,15,15,16,16,17,17,18,18,21,21,23,23,24,24,25,25,27,27,29,29,31,31,32,32],"right_children":[2,4,6,-1,-1,8,10,12,14,16,18,-1,20,22,24,26,28,30,32,-1,-1,34,-1,36,38,40,-1,42,-1,44,-1,46,48,-1,-1,-1,-1,-1,-1,-1,-1,-1,-1,-1,-1,-1,-1,-1,-1],"split_conditions":[-2.4808656E-1,-7.74957E-1,-7.629513E-1,3.1693563E-2,-2.354675E-1,8.343061E-1,-5.889789E-1,2.8225136E-1,-2.3656103E-3,6.351364E-2,-4.302863E-1,-1.7418772E-2,-8.0704474E-1,-8.3454853E-1,1.0081404E0,-6.186655E-1,1.0081404E0,1.388225E0,-3.8815746E-1,-2.6518634E-1,-2.7582193E-2,1.5639013E0,-2.3381409E-1,4.0151387E-1,5.31514E-1,-4.9548677E-1,3.8415235E-1,9.893686E-1,-2.2091012E-1,1.6522909E0,2.786444E-1,6.800048E-1,2.8225136E-1,6.471195E-2,-1.2628095E-1,4.023005E-1,1.0164901E-1,7.9050586E-2,-1.643107E-1,2.511055E-1,7.973749E-6,-5.492347E-2,1.4963664E-1,-2.0857175E-1,1.9251175E-2,2.8811312E-1,6.7990504E-2,-1.9915856E-1,1.0814676E-2],"split_indices":[1,7,7,0,0,0,7,1,8,8,7,0,7,7,6,7,6,4,7,0,0,1,0,8,8,8,0,1,0,1,0,1,1,0,0,0,0,0,0,0,0,0,0,0,0,0,0,0,0],"split_type":[0,0,0,0,0,0,0,0,0,0,0,0,0,0,0,0,0,0,0,0,0,0,0,0,0,0,0,0,0,0,0,0,0,0,0,0,0,0,0,0,0,0,0,0,0,0,0,0,0],"sum_hessian":[1.4132193E2,5.248378E0,1.3607356E2,1.6754649E0,3.5729132E0,1.7372293E1,1.1870126E2,5.8867245E0,1.148557E1,1.3020941E1,1.0568032E2,1.0329958E0,4.8537283E0,5.9800434E0,5.505526E0,8.468004E0,4.552937E0,1.4112253E1,9.156807E1,3.8428032E0,1.0109252E0,4.360328E0,1.6197152E0,2.6406398E0,2.8648863E0,7.072695E0,1.3953094E0,2.7665677E0,1.7863693E0,1.2448058E1,1.664195E0,2.2289672E0,8.93391E1,2.6902125E0,1.6701158E0,1.0101212E0,1.6305186E0,1.8625298E0,1.0023564E0,2.3843176E0,4.688377E0,1.3539826E0,1.4125851E0,1.0513349E1,1.93471E0,1.0005503E0,1.2284169E0,4.5234895E0,8.481561E1],"tree_param":{"num_deleted":"0","num_feature":"10","num_nodes":"49","size_leaf_vector":"1"}},{"base_weights":[-3.2237183E-2,-4.6983606E-1,-1.406397E-2,-2.2683428E-1,5.1563468E-2,-4.115509E-1,-1.7998861E-3,-1.8959585E-1,-8.322976E-3,6.938645E-3,-1.6565728E-1,-1.899258E-2,1.7367256E-1,3.5242215E-1,-3.446063E-2,-1.0351273E-1,2.591505E-1,-1.7277072E-1,2.3626226E-1,-1.0325315E-1,-1.6435579E-3,1.6046838E-1,1.72914E-2],"categories":[],"categories_nodes":[],"categories_segments":[],"categories_sizes":[],"default_left":[0,0,0,0,0,0,0,0,0,0,0,0,0,0,0,0,0,0,0,0,0,0,0],"id":16,"left_children":[1,3,5,-1,-1,7,9,-1,-1,11,-1,13,15,17,19,-1,21,-1,-1,-1,-1,-1,-1],"loss_changes":[1.1075746E0,1.1505625E0,6.6002923E-1,0E0,0E0,3.2533842E-1,6.410812E-1,0E0,0E0,5.714733E-1,0E0,6.7068034E-1,8.780085E-1,2.3407044E0,9.940673E-1,0E0,8.493595E-1,0E0,0E0,0E0,0E0,0E0,0E0],"parents":[2147483647,0,0,1,1,2,2,5,5,6,6,9,9,11,11,12,12,13,13,14,14,16,16],"right_children":[2,4,6,-1,-1,8,10,-1,-1,12,-1,14,16,18,20,-1,22,-1,-1,-1,-1,-1,-1],"split_conditions":[-2.4808656E-1,-2.3656103E-3,-1.0200901E0,-2.2683428E-1,5.1563468E-2,1.4313169E0,2.7285154E0,-1.8959585E-1,-8.322976E-3,9.7351426E-1,-1.6565728E-1,-9.484929E-1,3.264462E-1,8.343061E-1,-7.629513E-1,-1.0351273E-1,7.2419965E-1,-1.7277072E-1,2.3626226E-1,-1.0325315E-1,-1.6435579E-3,1.6046838E-1,1.72914E-2],"split_indices":[1,8,7,0,0,1,8,0,0,8,0,7,1,0,7,0,1,0,0,0,0,0,0],"split_type":[0,0,0,0,0,0,0,0,0,0,0,0,0,0,0,0,0,0,0,0,0,0,0],"sum_hessian":[1.391033E2,4.5555468E0,1.3454776E2,3.0269206E0,1.5286264E0,3.05263E0,1.3149513E2,1.5282667E0,1.5243632E0,1.3041197E2,1.0831515E0,1.1362637E2,1.6785604E1,3.671976E0,1.099544E2,1.9451314E0,1.4840473E1,1.0685899E0,2.6033862E0,8.478082E0,1.0147632E2,5.5675693E0,9.272904E0],"tree_param":{"num_deleted":"0","num_feature":"10","num_nodes":"23","size_leaf_vector":"1"}},{"base_weights":[-2.8184041E-2,-1.9013098E-1,1.2265536E-2,-5.2972883E-1,-6.150346E-3,2.0710428E-1,-1.9193074E-2,-2.2716223E-1,-6.992596E-1,4.8396438E-1,-3.5107887E-1,-2.2020862E-1,7.0350325E-1,-3.864907E-1,2.605053E-2,-2.1025403E-1,1.199035E-1,-2.4206792E-1,-2.9812092E-2,8.86516E-1,-4.2013755E-1,-5.830998E-1,2.2736868E-1,2.733646E-1,-4.6948677E-1,-1.315765E-1,1.1857895E0,-6.7913866E-1,2.1353216E-1,6.0565066E-1,-7.7903704E-3,1.3238775E0,2.5468537E-1,-1.4927146E-2,-1.7305107E-1,-7.310085E-1,-1.47359315E-2,-6.257737E-2,1.5360299E-1,5.274179E-2,-2.6535556E-1,1.4532603E0,9.888656E-2,7.1872175E-2,-8.655775E-1,-1.765598E-1,3.4159952E-1,-2.7158093E-2,2.2136204E-1,-1.008316E-2,5.803947E-1,2.1789394E-1,-8.1679046E-2,-2.9115975E-2,-2.529205E-1,1.0191171E-1,-1.1426647E-1,5.1969373E-1,1.4838062E-1,-2.8393123E-1,-8.976682E-2,2.4648136E-3,-1.8022196E-1],"categories":[],"categories_nodes":[],"categories_segments":[],"categories_sizes":[],"default_left":[0,0,0,0,0,0,0,0,0,0,0,0,0,0,0,0,0,0,0,0,0,0,0,0,0,0,0,0,0,0,0,0,0,0,0,0,0,0,0,0,0,0,0,0,0,0,0,0,0,0,0,0,0,0,0,0,0,0,0,0,0,0,0],"id":17,"left_children":[1,3,5,7,9,11,13,15,17,19,21,23,25,27,29,-1,-1,-1,-1,31,33,35,37,-1,39,-1,41,43,-1,45,47,49,51,-1,-1,53,-1,-1,-1,55,-1,57,-1,-1,59,-1,-1,61,-1,-1,-1,-1,-1,-1,-1,-1,-1,-1,-1,-1,-1,-1,-1],"loss_changes":[9.140029E-1,1.7383269E0,6.9228524E-1,3.4297252E-1,3.397402E0,3.4842668E0,1.6319981E0,1.7630447E0,2.9358625E-1,3.395577E0,1.7142612E0,3.021562E0,4.650812E0,3.9440098E0,1.7275188E0,0E0,0E0,0E0,0E0,1.3399143E0,1.5919763E-1,6.505666E-1,6.1474216E-1,0E0,1.8230729E0,0E0,7.902603E-1,1.7512321E0,0E0,3.762433E0,1.2328081E0,2.8410673E0,1.1224453E0,0E0,0E0,3.965919E-1,0E0,0E0,0E0,6.984424E-1,0E0,1.9452953E-1,0E0,0E0,6.987238E-2,0E0,0E0,1.6852443E0,0E0,0E0,0E0,0E0,0E0,0E0,0E0,0E0,0E0,0E0,0E0,0E0,0E0,0E0,0E0],"parents":[2147483647,0,0,1,1,2,2,3,3,4,4,5,5,6,6,7,7,8,8,9,9,10,10,11,11,12,12,13,13,14,14,19,19,20,20,21,21,22,22,24,24,26,26,27,27,29,29,30,30,31,31,32,32,35,35,39,39,41,41,44,44,47,47],"right_children":[2,4,6,8,10,12,14,16,18,20,22,24,26,28,30,-1,-1,-1,-1,32,34,36,38,-1,40,-1,42,44,-1,46,48,50,52,-1,-1,54,-1,-1,-1,56,-1,58,-1,-1,60,-1,-1,62,-1,-1,-1,-1,-1,-1,-1,-1,-1,-1,-1,-1,-1,-1,-1],"split_conditions":[5.9161514E-1,-6.6486456E-2,7.2419965E-1,-4.9140584E-1,2.715138E-1,3.9342698E-1,8.567841E-1,-6.9637465E-1,1.0481523E0,-1.7773151E-1,1.6879432E0,-7.991865E-1,-5.3486444E-2,4.198834E0,9.009789E-1,-2.1025403E-1,1.199035E-1,-2.4206792E-1,-2.9812092E-2,2.8225136E-1,3.7064102E-1,1.5845147E0,4.5903066E-1,2.733646E-1,-5.239709E-1,-1.315765E-1,1.5005156E-1,-3.1348664E-1,2.1353216E-1,-3.447189E-1,2.052515E0,6.351364E-2,3.7513617E-2,-1.4927146E-2,-1.7305107E-1,3.4951383E-1,-1.47359315E-2,-6.257737E-2,1.5360299E-1,8.343061E-1,-2.6535556E-1,-2.1091071E-1,9.888656E-2,7.1872175E-2,2.0963528E0,-1.765598E-1,3.4159952E-1,1.0515143E0,2.2136204E-1,-1.008316E-2,5.803947E-1,2.1789394E-1,-8.1679046E-2,-2.9115975E-2,-2.529205E-1,1.0191171E-1,-1.1426647E-1,5.1969373E-1,1.4838062E-1,-2.8393123E-1,-8.976682E-2,2.4648136E-3,-1.8022196E-1],"split_indices":[1,8,1,7,8,9,1,7,7,7,7,7,8,3,1,0,0,0,0,1,1,8,1,0,9,0,5,8,0,7,8,8,8,0,0,8,0,0,0,0,0,7,0,0,7,0,0,8,0,0,0,0,0,0,0,0,0,0,0,0,0,0,0],"split_type":[0,0,0,0,0,0,0,0,0,0,0,0,0,0,0,0,0,0,0,0,0,0,0,0,0,0,0,0,0,0,0,0,0,0,0,0,0,0,0,0,0,0,0,0,0,0,0,0,0,0,0,0,0,0,0,0,0,0,0,0,0,0,0],"sum_hessian":[1.3817184E2,2.6874533E1,1.1129732E2,8.783106E0,1.8091427E1,1.4695766E1,9.6601555E1,3.9943025E0,4.788803E0,7.3064637E0,1.0784963E1,8.1964445E0,6.499322E0,9.767158E0,8.68344E1,2.2078414E0,1.7864611E0,3.7677112E0,1.021092E0,5.0689597E0,2.2375042E0,7.691704E0,3.093259E0,1.0004023E0,7.1960425E0,1.956584E0,4.542738E0,8.01348E0,1.753678E0,3.8581448E0,8.297625E1,2.3482003E0,2.7207592E0,1.0569024E0,1.1806018E0,5.734348E0,1.9573562E0,1.3273906E0,1.7658687E0,3.5730479E0,3.6229947E0,2.9299924E0,1.6127452E0,1.3037932E0,6.7096863E0,1.1584824E0,2.6996622E0,8.181479E1,1.1614623E0,1.0219052E0,1.326295E0,1.2360961E0,1.4846631E0,1.1416699E0,4.5926776E0,2.2804873E0,1.2925606E0,1.6443324E0,1.2856601E0,5.2841516E0,1.4255351E0,7.79906E1,3.8241882E0],"tree_param":{"num_deleted":"0","num_feature":"10","num_nodes":"63","size_leaf_vector":"1"}},{"base_weights":[-2.3033304E-2,-1.7995735E-1,-1.26493815E-2,-4.4005212E-1,6.396714E-4,-2.1258284E-1,5.5857174E-2,8.930863E-3,-1.6114523E-1,3.019399E-1,-4.2906287E-3,6.212205E-1,-1.6447373E-1,-3.0079377E-1,1.5817167E-2,-2.9986748E-2,2.9377815E-1,1.04748465E-1,-1.7873225E-1,-1.981288E-1,4.706787E-2,1.8510081E-1,-2.2051195E-3],"categories":[],"categories_nodes":[],"categories_segments":[],"categories_sizes":[],"default_left":[0,0,0,0,0,0,0,0,0,0,0,0,0,0,0,0,0,0,0,0,0,0,0],"id":18,"left_children":[1,-1,3,5,7,-1,-1,9,-1,11,13,15,17,19,21,-1,-1,-1,-1,-1,-1,-1,-1],"loss_changes":[8.1182E-1,0E0,7.693528E-1,8.188917E-1,5.948046E-1,0E0,0E0,5.099354E-1,0E0,9.484207E-1,7.596247E-1,1.0229863E0,8.9475E-1,1.4354073E0,1.6692309E0,0E0,0E0,0E0,0E0,0E0,0E0,0E0,0E0],"parents":[2147483647,0,0,2,2,3,3,4,4,7,7,9,9,10,10,11,11,12,12,13,13,14,14],"right_children":[2,-1,4,6,8,-1,-1,10,-1,12,14,16,18,20,22,-1,-1,-1,-1,-1,-1,-1,-1],"split_conditions":[-1.053051E0,-1.7995735E-1,-1.1454872E0,1.5639013E0,2.7285154E0,-2.1258284E-1,5.5857174E-2,-9.2448705E-1,-1.6114523E-1,1.0081404E0,-6.644869E-1,-2.2968315E-1,-4.398908E-1,1.5639013E0,-5.994868E-1,-2.9986748E-2,2.9377815E-1,1.04748465E-1,-1.7873225E-1,-1.981288E-1,4.706787E-2,1.8510081E-1,-2.2051195E-3],"split_indices":[7,0,8,1,8,0,0,8,0,6,8,7,7,1,8,0,0,0,0,0,0,0,0],"split_type":[0,0,0,0,0,0,0,0,0,0,0,0,0,0,0,0,0,0,0,0,0,0,0],"sum_hessian":[1.3580281E2,1.3976161E0,1.3440518E2,3.0845923E0,1.313206E2,2.0667596E0,1.0178326E0,1.3029521E2,1.0253862E0,4.6826763E0,1.2561253E2,2.5827568E0,2.0999196E0,7.091054E0,1.1852148E2,1.0959936E0,1.4867632E0,1.0453992E0,1.0545204E0,3.7228138E0,3.36824E0,3.446798E0,1.15074684E2],"tree_param":{"num_deleted":"0","num_feature":"10","num_nodes":"23","size_leaf_vector":"1"}},{"base_weights":[-1.96839E-2,-1.6623029E-1,-1.0886073E-2,-8.606758E-2,4.36701E-2,-1.62617E-1,2.3020904E-1,3.076564E-1,-2.4030726E-2,-6.151114E-2,-4.1095743E-1,6.054483E-1,3.824743E-2,5.709253E-1,-4.6883297E-1,-6.203036E-2,5.087352E-1,-2.3967226E-1,2.5855526E-1,-2.7086037E-1,-1.1748593E-1,9.736703E-3,2.6137263E-1,2.0084406E-1,-1.8913117E-1,8.881687E-1,-2.2225626E-1,-2.8555512E-1,1.16303556E-1,2.665054E-1,-1.0223867E-1,-6.66471E-2,2.5910595E-1,-1.0043401E-2,-2.1549249E-1,1.8835247E-1,-7.165188E-2,-1.06061086E-1,2.0010436E-1,4.1354623E-2,-1.7909329E-1,7.918839E-2,3.5680524E-1,3.92031E-2,-2.1009128E-1,-1.1196726E-1,1.7342973E-1,-1.0651669E-2,-1.2561026E-1],"categories":[],"categories_nodes":[],"categories_segments":[],"categories_sizes":[],"default_left":[0,0,0,0,0,0,0,0,0,0,0,0,0,0,0,0,0,0,0,0,0,0,0,0,0,0,0,0,0,0,0,0,0,0,0,0,0,0,0,0,0,0,0,0,0,0,0,0,0],"id":19,"left_children":[1,-1,3,5,7,9,11,13,15,17,19,21,23,25,27,29,31,33,35,-1,37,-1,-1,-1,39,41,43,-1,-1,45,47,-1,-1,-1,-1,-1,-1,-1,-1,-1,-1,-1,-1,-1,-1,-1,-1,-1,-1],"loss_changes":[6.321462E-1,0E0,5.5565137E-1,1.415478E0,1.4127915E0,1.1400884E0,8.056086E-1,3.563617E0,1.3173822E0,2.0098999E0,1.8071077E0,5.544883E-1,1.3723217E0,3.340661E0,2.2850952E0,8.221682E-1,1.3170763E0,2.1929517E0,2.4820414E0,0E0,1.9858205E0,0E0,0E0,0E0,1.037189E0,1.4011626E0,8.2858217E-1,0E0,0E0,1.5790095E0,1.1326574E0,0E0,0E0,0E0,0E0,0E0,0E0,0E0,0E0,0E0,0E0,0E0,0E0,0E0,0E0,0E0,0E0,0E0,0E0],"parents":[2147483647,0,0,2,2,3,3,4,4,5,5,6,6,7,7,8,8,9,9,10,10,11,11,12,12,13,13,14,14,15,15,16,16,17,17,18,18,20,20,24,24,25,25,26,26,29,29,30,30],"right_children":[2,-1,4,6,8,10,12,14,16,18,20,22,24,26,28,30,32,34,36,-1,38,-1,-1,-1,40,42,44,-1,-1,46,48,-1,-1,-1,-1,-1,-1,-1,-1,-1,-1,-1,-1,-1,-1,-1,-1,-1,-1],"split_conditions":[-1.053051E0,-1.6623029E-1,-2.3656103E-3,3.0173697E0,-1.4864082E-3,2.3635353E-1,-5.239709E-1,3.0173697E0,2.9074967E0,-2.851273E-1,-3.6548665E-1,-2.4848658E-1,-6.747645E-1,4.198834E0,1.5005156E-1,-8.214515E-1,1.0777582E0,-4.9140584E-1,1.5005156E-1,-2.7086037E-1,1.5639013E0,9.736703E-3,2.6137263E-1,2.0084406E-1,1.0081404E0,8.343061E-1,1.4313169E0,-2.8555512E-1,1.16303556E-1,8.343061E-1,1.3108249E0,-6.66471E-2,2.5910595E-1,-1.0043401E-2,-2.1549249E-1,1.8835247E-1,-7.165188E-2,-1.06061086E-1,2.0010436E-1,4.1354623E-2,-1.7909329E-1,7.918839E-2,3.5680524E-1,3.92031E-2,-2.1009128E-1,-1.1196726E-1,1.7342973E-1,-1.0651669E-2,-1.2561026E-1],"split_indices":[7,0,8,2,8,7,9,2,7,7,8,8,7,3,5,7,1,7,5,0,1,0,0,0,6,0,1,0,0,0,9,0,0,0,0,0,0,0,0,0,0,0,0,0,0,0,0,0,0],"split_type":[0,0,0,0,0,0,0,0,0,0,0,0,0,0,0,0,0,0,0,0,0,0,0,0,0,0,0,0,0,0,0,0,0,0,0,0,0,0,0,0,0,0,0,0,0,0,0,0,0],"sum_hessian":[1.3473326E2,1.1782753E0,1.3355498E2,5.5918507E1,7.7636475E1,4.5412914E1,1.050559E1,1.512298E1,6.2513496E1,3.3160217E1,1.22527E1,2.8264823E0,7.679108E0,1.1491515E1,3.6314654E0,5.9176304E1,3.3371923E0,2.146382E1,1.1696397E1,3.8025088E0,8.450191E0,1.2512251E0,1.5752572E0,1.5186886E0,6.16042E0,8.1229E0,3.368615E0,2.2508307E0,1.3806347E0,5.8389616E0,5.3337345E1,1.2131904E0,2.124002E0,1.5749115E1,5.7147036E0,6.562138E0,5.1342587E0,6.917968E0,1.532223E0,3.786613E0,2.3738067E0,3.2544296E0,4.86847E0,2.3559263E0,1.0126886E0,1.8476926E0,3.9912689E0,4.49672E1,8.370141E0],"tree_param":{"num_deleted":"0","num_feature":"10","num_nodes":"49","size_leaf_vector":"1"}},{"base_weights":[-1.8042527E-2,-3.8881087E-1,-7.2662346E-3,-1.9973136E-1,5.4992925E-2,-1.5882233E-1,1.4756057E-2,-6.8061775E-1,6.435157E-2,3.4208953E-1,-9.146812E-3,-1.8047092E-2,-2.4592964E-1,-1.7494859E-1,4.179661E-1,-2.0880751E-1,6.890715E-1,-1.651834E-1,7.6145376E-3,2.6495743E-1,-3.8655883E-1,2.4705268E-1,-5.688896E-2,9.339548E-1,-5.0138226E-3,2.0274195E-1,-9.271343E-3,-7.1950756E-2,2.103081E-1,2.6034536E-2,-1.9663368E-1,-1.7031834E-1,1.2590523E-1,4.9286112E-2,3.9190263E-1,-1.7516316E-1,1.249618E-3],"categories":[],"categories_nodes":[],"categories_segments":[],"categories_sizes":[],"default_left":[0,0,0,0,0,0,0,0,0,0,0,0,0,0,0,0,0,0,0,0,0,0,0,0,0,0,0,0,0,0,0,0,0,0,0,0,0],"id":20,"left_children":[1,3,5,-1,-1,7,9,11,13,15,17,-1,-1,19,21,-1,23,-1,25,27,29,-1,31,33,-1,-1,35,-1,-1,-1,-1,-1,-1,-1,-1,-1,-1],"loss_changes":[5.312287E-1,7.17219E-1,4.3926194E-1,0E0,0E0,1.9877808E0,9.045868E-1,3.8990474E-1,1.1398592E0,3.3132708E0,9.875162E-1,0E0,0E0,8.679151E-1,1.0834599E0,0E0,1.1215014E0,0E0,1.2031703E0,8.866664E-1,8.153204E-1,0E0,1.0696425E0,1.1519418E0,0E0,0E0,8.088884E-1,0E0,0E0,0E0,0E0,0E0,0E0,0E0,0E0,0E0,0E0],"parents":[2147483647,0,0,1,1,2,2,5,5,6,6,7,7,8,8,9,9,10,10,13,13,14,14,16,16,18,18,19,19,20,20,22,22,23,23,26,26],"right_children":[2,4,6,-1,-1,8,10,12,14,16,18,-1,-1,20,22,-1,24,-1,26,28,30,-1,32,34,-1,-1,36,-1,-1,-1,-1,-1,-1,-1,-1,-1,-1],"split_conditions":[-1.1454872E0,1.5639013E0,-7.860895E-1,-1.9973136E-1,5.4992925E-2,8.343061E-1,-6.915724E-1,2.3805654E-1,1.2851368E-1,-5.239709E-1,-6.5555555E-1,-1.8047092E-2,-2.4592964E-1,-5.239709E-1,5.31514E-1,-2.0880751E-1,1.1513601E-2,-1.651834E-1,-6.407122E-1,-1.444865E-1,-4.5648673E-1,2.4705268E-1,-9.107297E-1,-1.9648655E-1,-5.0138226E-3,2.0274195E-1,-2.4808656E-1,-7.1950756E-2,2.103081E-1,2.6034536E-2,-1.9663368E-1,-1.7031834E-1,1.2590523E-1,4.9286112E-2,3.9190263E-1,-1.7516316E-1,1.249618E-3],"split_indices":[8,1,7,0,0,0,7,1,8,9,7,0,0,9,8,0,8,0,7,8,8,0,7,8,0,0,1,0,0,0,0,0,0,0,0,0,0],"split_type":[0,0,0,0,0,0,0,0,0,0,0,0,0,0,0,0,0,0,0,0,0,0,0,0,0,0,0,0,0,0,0,0,0,0,0,0,0],"sum_hessian":[1.3266357E2,2.7561312E0,1.2990746E2,1.7468169E0,1.0093143E0,1.5693542E1,1.14213905E2,4.0873427E0,1.1606199E1,6.8667536E0,1.0734715E2,1.0111119E0,3.0762312E0,7.223276E0,4.3829226E0,1.4681984E0,5.3985553E0,2.266884E0,1.0508027E2,2.2642138E0,4.9590626E0,1.9679729E0,2.4149497E0,3.7679257E0,1.6306297E0,1.6282126E0,1.0345206E2,1.2579819E0,1.006232E0,2.041869E0,2.9171937E0,1.0732557E0,1.3416941E0,1.6985188E0,2.069407E0,1.3938065E0,1.0205825E2],"tree_param":{"num_deleted":"0","num_feature":"10","num_nodes":"37","size_leaf_vector":"1"}},{"base_weights":[-1.662573E-2,-3.4388086E-1,-7.746118E-3,-1.8466379E-1,4.6147194E-2,2.5001532E-1,-1.9130565E-2,4.6874247E-3,2.0061617E-1,-4.175873E-2,1.7019856E-1,1.526859E-1,-3.2818803E-1,-5.5633265E-1,-2.003979E-2,4.6590418E-1,-2.8715223E-1,5.8835857E-2,-1.9135785E-1,-4.0856212E-2,-2.233042E-1,-1.7518362E-1,-7.5892494E-3,-5.8320493E-2,1.0319928E0,-5.24204E-1,5.9666682E-2,-3.4811556E-2,1.1166645E-2,-1.00407265E-1,1.6016772E-1,3.8389647E-1,7.4105695E-2,-1.9513156E-1,-3.8341537E-2,-1.02113806E-1,1.3266774E-1],"categories":[],"categories_nodes":[],"categories_segments":[],"categories_sizes":[],"default_left":[0,0,0,0,0,0,0,0,0,0,0,0,0,0,0,0,0,0,0,0,0,0,0,0,0,0,0,0,0,0,0,0,0,0,0,0,0],"id":21,"left_children":[1,3,5,-1,-1,7,9,11,-1,13,15,-1,17,19,21,23,25,-1,-1,-1,-1,-1,27,29,31,33,35,-1,-1,-1,-1,-1,-1,-1,-1,-1,-1],"loss_changes":[3.830159E-1,5.65629E-1,3.8696843E-1,0E0,0E0,5.700459E-1,5.454558E-1,9.2667806E-1,0E0,1.2522722E0,1.9747202E0,0E0,6.664145E-1,2.573284E-1,7.64408E-1,2.626659E0,5.215901E-1,0E0,0E0,0E0,0E0,0E0,5.2992404E-1,1.0685196E0,5.026803E-1,9.924936E-2,6.584891E-1,0E0,0E0,0E0,0E0,0E0,0E0,0E0,0E0,0E0,0E0],"parents":[2147483647,0,0,1,1,2,2,5,5,6,6,7,7,9,9,10,10,12,12,13,13,14,14,15,15,16,16,22,22,23,23,24,24,25,25,26,26],"right_children":[2,4,6,-1,-1,8,10,12,-1,14,16,-1,18,20,22,24,26,-1,-1,-1,-1,-1,28,30,32,34,36,-1,-1,-1,-1,-1,-1,-1,-1,-1,-1],"split_conditions":[-1.1454872E0,1.5639013E0,-9.2448705E-1,-1.8466379E-1,4.6147194E-2,-9.634871E-1,1.388225E0,8.343061E-1,2.0061617E-1,-7.1648693E-1,-1.7336583E-1,1.526859E-1,1.5005156E-1,-8.59487E-1,-2.0389172E-1,-5.219656E-1,1.5879691E0,5.8835857E-2,-1.9135785E-1,-4.0856212E-2,-2.233042E-1,-1.7518362E-1,-4.302863E-1,1.3108249E0,-2.2248656E-1,1.2103428E0,1.8051372E-1,-3.4811556E-2,1.1166645E-2,-1.00407265E-1,1.6016772E-1,3.8389647E-1,7.4105695E-2,-1.9513156E-1,-3.8341537E-2,-1.02113806E-1,1.3266774E-1],"split_indices":[8,1,8,0,0,8,4,0,0,8,7,0,5,8,1,7,7,0,0,0,0,0,7,9,8,1,8,0,0,0,0,0,0,0,0,0,0],"split_type":[0,0,0,0,0,0,0,0,0,0,0,0,0,0,0,0,0,0,0,0,0,0,0,0,0,0,0,0,0,0,0,0,0,0,0,0,0],"sum_hessian":[1.3172304E2,2.483076E0,1.2923996E2,1.4531344E0,1.0299417E0,4.5800242E0,1.24659935E2,3.525536E0,1.0544882E0,1.120477E2,1.2612235E1,1.19154E0,2.333996E0,3.540871E0,1.0850683E2,7.6483808E0,4.9638543E0,1.0028117E0,1.3311844E0,1.6277587E0,1.9131122E0,1.3524168E0,1.0715441E2,4.4367337E0,3.2116473E0,2.6447182E0,2.319136E0,3.0865793E1,7.628862E1,3.3215156E0,1.115218E0,1.9623355E0,1.2493118E0,1.5198488E0,1.1248695E0,1.1875546E0,1.1315814E0],"tree_param":{"num_deleted":"0","num_feature":"10","num_nodes":"37","size_leaf_vector":"1"}},{"base_weights":[-1.3900478E-2,-3.010654E-1,-4.740994E-3,6.939343E-2,-1.9201602E-1,1.0075153E-1,-1.2435475E-2,-1.6051808E-1,-3.4552836E-3,-2.6467482E-2,1.1183228E-1,-7.1273358E-3,-2.1271488E-1,-8.5870246E-4,6.0341734E-1,-8.248216E-3,1.7490833E-1,6.3937515E-2,-7.2267264E-2,3.225202E-1,-1.747596E-2],"categories":[],"categories_nodes":[],"categories_segments":[],"categories_sizes":[],"default_left":[0,0,0,0,0,0,0,0,0,0,0,0,0,0,0,0,0,0,0,0,0],"id":22,"left_children":[1,3,5,-1,-1,-1,7,-1,9,11,13,15,-1,17,19,-1,-1,-1,-1,-1,-1],"loss_changes":[3.4491992E-1,8.79706E-1,3.4124255E-1,0E0,0E0,0E0,5.930011E-1,0E0,3.362077E-1,1.3879212E0,1.168967E0,1.2615081E0,0E0,9.839534E-1,1.2906141E0,0E0,0E0,0E0,0E0,0E0,0E0],"parents":[2147483647,0,0,1,1,2,2,6,6,8,8,9,9,10,10,11,11,13,13,14,14],"right_children":[2,4,6,-1,-1,-1,8,-1,10,12,14,16,-1,18,20,-1,-1,-1,-1,-1,-1],"split_conditions":[-2.4808656E-1,-1.2645676E0,-1.596969E-1,6.939343E-2,-1.9201602E-1,1.0075153E-1,6.1277233E-2,-1.6051808E-1,8.435142E-1,7.525141E-1,4.198834E0,6.7451406E-1,-2.1271488E-1,7.2419965E-1,1.0515143E0,-8.248216E-3,1.7490833E-1,6.3937515E-2,-7.2267264E-2,3.225202E-1,-1.747596E-2],"split_indices":[1,1,1,0,0,0,1,0,8,8,3,8,0,1,8,0,0,0,0,0,0],"split_type":[0,0,0,0,0,0,0,0,0,0,0,0,0,0,0,0,0,0,0,0,0],"sum_hessian":[1.3067683E2,3.0541751E0,1.27622665E2,1.3117415E0,1.7424337E0,1.8773912E0,1.2574527E2,1.134558E0,1.2461072E2,1.0451852E2,2.0092197E1,1.0262131E2,1.8972099E0,1.7157309E1,2.934889E0,1.00119514E2,2.501791E0,9.130105E0,8.027204E0,1.3487208E0,1.5861684E0],"tree_param":{"num_deleted":"0","num_feature":"10","num_nodes":"21","size_leaf_vector":"1"}},{"base_weights":[-1.03028715E-2,-1.18130855E-1,1.1761339E-2,9.5828176E-2,-4.2155632E-1,-2.0219732E-2,1.3118404E-1,4.1069397E-1,-2.636494E-1,-2.46226E-1,3.0493133E-3,4.072415E-3,-2.2523138E-1,5.1274367E-2,2.3049504E-1,1.4328707E-2,3.519619E-1,-4.1025838E-1,7.6791465E-2,2.0525028E-1,-5.210885E-1,-4.203829E-2,2.9941416E-1,2.1983926E-1,-4.0802574E-1,2.4831857E-1,-1.6305171E-1,-5.629334E-1,-2.0051796E-2,-1.9365484E-1,-2.8126232E-2,-4.544802E-1,-1.4855523E-2,4.2715397E-1,3.3955503E-2,-8.95842E-2,4.3852365E-1,-5.65818E-1,5.14993E-2,-8.2723655E-2,1.7701769E-1,-2.273608E-2,-2.1728896E-1,-2.413546E-1,1.1452039E-1,3.2589965E-2,-3.245252E-2,-3.521777E-2,1.8630396E-1,7.677081E-2,-1.6993907E-1,2.5301617E-1,3.3452116E-2,-2.4815616E-1,3.6319546E-2],"categories":[],"categories_nodes":[],"categories_segments":[],"categories_sizes":[],"default_left":[0,0,0,0,0,0,0,0,0,0,0,0,0,0,0,0,0,0,0,0,0,0,0,0,0,0,0,0,0,0,0,0,0,0,0,0,0,0,0,0,0,0,0,0,0,0,0,0,0,0,0,0,0,0,0],"id":23,"left_children":[1,3,5,7,9,11,13,15,17,-1,19,21,-1,23,-1,25,-1,27,-1,-1,29,31,33,35,37,39,-1,41,-1,-1,-1,43,45,-1,47,49,51,53,-1,-1,-1,-1,-1,-1,-1,-1,-1,-1,-1,-1,-1,-1,-1,-1,-1],"loss_changes":[3.1294712E-1,1.4904065E0,4.213161E-1,1.6831028E0,1.5994886E0,1.5528821E0,1.1462879E0,2.3430047E0,6.4632094E-1,0E0,2.3420875E0,1.1771609E0,0E0,1.7747523E0,0E0,9.376785E-1,0E0,2.7308846E-1,0E0,0E0,1.3679028E-1,8.323411E-1,3.4354093E0,1.1605937E0,6.6363883E-1,1.0615553E0,0E0,2.569902E-1,0E0,0E0,0E0,1.6517689E0,8.3282405E-1,0E0,1.002857E0,1.4123166E0,1.2138896E0,1.0159224E0,0E0,0E0,0E0,0E0,0E0,0E0,0E0,0E0,0E0,0E0,0E0,0E0,0E0,0E0,0E0,0E0,0E0],"parents":[2147483647,0,0,1,1,2,2,3,3,4,4,5,5,6,6,7,7,8,8,10,10,11,11,13,13,15,15,17,17,20,20,21,21,22,22,23,23,24,24,25,25,27,27,31,31,32,32,34,34,35,35,36,36,37,37],"right_children":[2,4,6,8,10,12,14,16,18,-1,20,22,-1,24,-1,26,-1,28,-1,-1,30,32,34,36,38,40,-1,42,-1,-1,-1,44,46,-1,48,50,52,54,-1,-1,-1,-1,-1,-1,-1,-1,-1,-1,-1,-1,-1,-1,-1,-1,-1],"split_conditions":[5.474203E-1,1.0081404E0,6.09514E-1,-3.8815746E-1,2.451361E-2,5.44514E-1,2.9074967E0,-5.182548E-1,1.7145147E0,-2.46226E-1,3.3651382E-1,1.0491042E0,-2.2523138E-1,2.193271E0,2.3049504E-1,2.5851378E-1,3.519619E-1,3.9342698E-1,7.6791465E-2,2.0525028E-1,1.32232E-1,6.3580996E-1,6.3580996E-1,-2.1724094E-1,3.9342698E-1,-5.3486444E-2,-1.6305171E-1,-1.4864082E-3,-2.0051796E-2,-1.9365484E-1,-2.8126232E-2,2.715138E-1,-1.7048652E-1,4.2715397E-1,1.6080961E0,1.0081404E0,-5.239709E-1,1.3429272E0,5.14993E-2,-8.2723655E-2,1.7701769E-1,-2.273608E-2,-2.1728896E-1,-2.413546E-1,1.1452039E-1,3.2589965E-2,-3.245252E-2,-3.521777E-2,1.8630396E-1,7.677081E-2,-1.6993907E-1,2.5301617E-1,3.3452116E-2,-2.4815616E-1,3.6319546E-2],"split_indices":[1,6,8,7,8,8,7,7,8,0,8,5,0,7,0,8,0,9,0,0,7,1,1,7,9,8,0,8,0,0,0,8,8,0,1,6,9,1,0,0,0,0,0,0,0,0,0,0,0,0,0,0,0,0,0],"split_type":[0,0,0,0,0,0,0,0,0,0,0,0,0,0,0,0,0,0,0,0,0,0,0,0,0,0,0,0,0,0,0,0,0,0,0,0,0,0,0,0,0,0,0,0,0,0,0,0,0,0,0,0,0,0,0],"sum_hessian":[1.2995398E2,2.1335117E1,1.0861886E2,1.2913444E1,8.421675E0,8.633048E1,2.2288378E1,6.807922E0,6.105521E0,3.859836E0,4.5618386E0,8.451464E1,1.815838E0,2.076455E1,1.523829E0,5.1497808E0,1.658141E0,4.926106E0,1.1794152E0,1.8510609E0,2.7107778E0,7.384338E1,1.0671256E1,1.5571215E1,5.193335E0,4.0188723E0,1.1309085E0,2.9675915E0,1.9585145E0,1.7040442E0,1.0067334E0,3.5939074E0,7.024948E1,1.2046912E0,9.466564E0,6.692348E0,8.878866E0,4.1009755E0,1.0923598E0,1.6625068E0,2.3563657E0,1.1040854E0,1.8635062E0,2.5601504E0,1.033757E0,3.0166449E1,4.008303E1,8.162293E0,1.3042709E0,4.1495123E0,2.5428357E0,3.2616894E0,5.617177E0,2.8226523E0,1.2783229E0],"tree_param":{"num_deleted":"0","num_feature":"10","num_nodes":"55","size_leaf_vector":"1"}},{"base_weights":[-9.563515E-3,2.597275E-3,-2.3464422E-1,-8.142874E-2,5.0150983E-2,-5.356381E-1,1.3524035E-1,-1.0842173E-2,-3.9673707E-1,5.7049793E-1,2.6279606E-2,-2.1001288E-1,-7.596608E-3,-3.9332703E-1,7.7631235E-2,4.1194278E-1,-8.2077885E-1,3.5589498E-1,-7.932257E-2,-5.4135793E-1,5.153538E-2,-2.1077806E-1,-1.3521501E-1,1.2973718E-1,-1.9791867E-1,-6.2490967E-3,1.989679E-1,-2.6854143E-1,-7.8512214E-2,-1.9607635E-1,-4.199842E-2,2.3582764E-1,-1.1843416E-3,-1.01114154E-1,1.0233856E-1,-5.450847E-2,7.01312E-2,1.5034518E-1,-5.0069597E-2,-6.420526E-2,2.2318559E-2],"categories":[],"categories_nodes":[],"categories_segments":[],"categories_sizes":[],"default_left":[0,0,0,0,0,0,0,0,0,0,0,0,0,0,0,0,0,0,0,0,0,0,0,0,0,0,0,0,0,0,0,0,0,0,0,0,0,0,0,0,0],"id":24,"left_children":[1,3,5,7,9,11,-1,13,15,17,19,-1,-1,21,23,25,27,-1,-1,29,31,-1,33,35,-1,-1,-1,-1,-1,-1,-1,37,39,-1,-1,-1,-1,-1,-1,-1,-1],"loss_changes":[3.555822E-1,4.9966836E-1,1.6152277E0,1.0018185E0,9.765132E-1,4.0879846E-1,0E0,1.3152553E0,3.1639862E0,2.08904E0,1.1370763E0,0E0,0E0,4.8747253E-1,1.3023033E0,3.9449573E-1,4.3685436E-3,0E0,0E0,6.087303E-2,7.28838E-1,0E0,6.164193E-1,1.0278541E0,0E0,0E0,0E0,0E0,0E0,0E0,0E0,1.8664384E0,9.6984494E-1,0E0,0E0,0E0,0E0,0E0,0E0,0E0,0E0],"parents":[2147483647,0,0,1,1,2,2,3,3,4,4,5,5,7,7,8,8,9,9,10,10,13,13,14,14,15,15,16,16,19,19,20,20,22,22,23,23,31,31,32,32],"right_children":[2,4,6,8,10,12,-1,14,16,18,20,-1,-1,22,24,26,28,-1,-1,30,32,-1,34,36,-1,-1,-1,-1,-1,-1,-1,38,40,-1,-1,-1,-1,-1,-1,-1,-1],"split_conditions":[1.6964858E0,-6.6486456E-2,4.198834E0,-1.7048652E-1,-4.0486436E-2,8.567171E-1,1.3524035E-1,6.800048E-1,-5.239709E-1,-2.6548174E-1,-1.4486417E-2,-2.1001288E-1,-7.596608E-3,8.343061E-1,2.9074967E0,1.0081404E0,4.198834E0,3.5589498E-1,-7.932257E-2,3.8835907E-4,-1.4864082E-3,-2.1077806E-1,-3.3948666E-1,-5.239709E-1,-1.9791867E-1,-6.2490967E-3,1.989679E-1,-2.6854143E-1,-7.8512214E-2,-1.9607635E-1,-4.199842E-2,1.0081404E0,2.4551377E-1,-1.01114154E-1,1.0233856E-1,-5.450847E-2,7.01312E-2,1.5034518E-1,-5.0069597E-2,-6.420526E-2,2.2318559E-2],"split_indices":[1,8,3,8,8,7,0,1,9,7,8,0,0,0,7,6,3,0,0,7,8,0,8,9,0,0,0,0,0,0,0,6,8,0,0,0,0,0,0,0,0],"split_type":[0,0,0,0,0,0,0,0,0,0,0,0,0,0,0,0,0,0,0,0,0,0,0,0,0,0,0,0,0,0,0,0,0,0,0,0,0,0,0,0,0],"sum_hessian":[1.2868657E2,1.23028E2,5.658567E0,4.4205616E1,7.882239E1,4.0838256E0,1.5747415E0,3.6964855E1,7.2407594E0,2.4530084E0,7.636938E1,2.8075535E0,1.2762719E0,6.296849E0,3.0668007E1,2.5005512E0,4.740208E0,1.1694998E0,1.2835087E0,2.382664E0,7.398672E1,2.0811698E0,4.215679E0,2.9413534E1,1.2544718E0,1.2554523E0,1.2450988E0,3.6531992E0,1.0870091E0,1.3709085E0,1.0117555E0,1.5684655E1,5.830206E1,3.1664476E0,1.0492314E0,7.178286E0,2.2235249E1,9.307995E0,6.37666E0,1.4798254E1,4.3503807E1],"tree_param":{"num_deleted":"0","num_feature":"10","num_nodes":"41","size_leaf_vector":"1"}},{"base_weights":[-1.3953464E-2,-3.0230147E-1,-6.5954723E-3,-1.6598757E-1,3.238005E-2,2.6565528E-1,-1.828363E-2,1.7189369E-1,1.605527E-2,-1.4475839E-1,4.6879207E-3,1.4166084E-1,-1.7702226E-1,-5.346031E-3,-5.6720847E-1,2.5848576E-1,-9.747339E-3,-1.563179E-1,4.1849872E-1,-2.3903361E-1,8.368885E-3,5.736321E-1,-1.1084075E-1,7.0649656E-3,-4.0069675E-1,-1.810558E-1,1.3825358E-2,2.12175E-1,1.077424E-2,-9.766811E-3,2.6450002E-1,-1.1176684E-1,6.4205653E-3,2.2274885E-2,-2.20775E-1],"categories":[],"categories_nodes":[],"categories_segments":[],"categories_sizes":[],"default_left":[0,0,0,0,0,0,0,0,0,0,0,0,0,0,0,0,0,0,0,0,0,0,0,0,0,0,0,0,0,0,0,0,0,0,0],"id":25,"left_children":[1,3,5,-1,-1,7,9,-1,11,13,15,-1,-1,17,19,21,23,25,27,-1,-1,29,-1,31,33,-1,-1,-1,-1,-1,-1,-1,-1,-1,-1],"loss_changes":[2.7144274E-1,3.876163E-1,4.0801102E-1,0E0,0E0,3.9579308E-1,3.5633135E-1,0E0,1.3686116E0,1.1070039E0,3.856132E-1,0E0,0E0,1.0368106E0,6.598388E-1,1.3327723E0,6.594679E-1,1.1068957E0,4.4510496E-1,0E0,0E0,8.0602515E-1,0E0,5.3463376E-1,7.132019E-1,0E0,0E0,0E0,0E0,0E0,0E0,0E0,0E0,0E0,0E0],"parents":[2147483647,0,0,1,1,2,2,5,5,6,6,8,8,9,9,10,10,13,13,14,14,15,15,16,16,17,17,18,18,21,21,23,23,24,24],"right_children":[2,4,6,-1,-1,8,10,-1,12,14,16,-1,-1,18,20,22,24,26,28,-1,-1,30,-1,32,34,-1,-1,-1,-1,-1,-1,-1,-1,-1,-1],"split_conditions":[-1.1454872E0,1.5639013E0,-9.2448705E-1,-1.6598757E-1,3.238005E-2,-6.407122E-1,-3.6548665E-1,1.7189369E-1,1.0081404E0,2.3635353E-1,-2.874866E-1,1.4166084E-1,-1.7702226E-1,-1.7773151E-1,3.0173697E0,1.5005156E-1,1.6964858E0,8.343061E-1,1.5005156E-1,-2.3903361E-1,8.368885E-3,8.343061E-1,-1.1084075E-1,-2.614866E-1,8.951365E-2,-1.810558E-1,1.3825358E-2,2.12175E-1,1.077424E-2,-9.766811E-3,2.6450002E-1,-1.1176684E-1,6.4205653E-3,2.2274885E-2,-2.20775E-1],"split_indices":[8,1,8,0,0,7,8,0,6,7,8,0,0,7,2,5,1,0,5,0,0,0,0,8,8,0,0,0,0,0,0,0,0,0,0],"split_type":[0,0,0,0,0,0,0,0,0,0,0,0,0,0,0,0,0,0,0,0,0,0,0,0,0,0,0,0,0,0,0,0,0,0,0],"sum_hessian":[1.2787847E2,2.1845524E0,1.2569392E2,1.1389807E0,1.0455717E0,4.279664E0,1.2141425E2,1.337392E0,2.9422722E0,1.7847794E1,1.0356646E2,1.8049196E0,1.1373526E0,1.4180692E1,3.6671016E0,4.663698E0,9.890276E1,1.0921637E1,3.2590544E0,2.4017167E0,1.2653849E0,3.1628788E0,1.5008193E0,9.576637E1,3.136388E0,2.7854652E0,8.136171E0,1.3736774E0,1.885377E0,1.3670131E0,1.7958658E0,2.575847E0,9.319053E1,1.6198525E0,1.5165355E0],"tree_param":{"num_deleted":"0","num_feature":"10","num_nodes":"35","size_leaf_vector":"1"}},{"base_weights":[-1.4114282E-2,-2.1588856E-2,2.0085669E-1,-4.3415055E-3,-1.6999532E-1,-1.6114648E-1,1.9144037E-1,-2.4203984E-2,3.833886E-1,-4.913707E-1,-5.0715066E-2,-1.1921291E-1,4.948322E-2,-2.3334557E-3,-3.935859E-1,9.1502205E-2,2.2699337E-1,-3.311937E-2,-1.8532176E-1,-1.8937829E-1,1.5930085E-1,2.8899267E-2,-1.551184E-1,-5.5115156E-2,-1.8474382E-1,1.3356264E-1,-1.1958188E-1,1.1200733E-1,-3.646603E-1,1.728739E-1,-9.2072025E-2,1.5267875E-2,-1.1788763E-1,-8.1665084E-2,1.5091993E-1,6.1409105E-2,-8.427956E-2,1.0217439E-1,-5.0654892E-2,1.8772667E-2,-1.5662982E-1],"categories":[],"categories_nodes":[],"categories_segments":[],"categories_sizes":[],"default_left":[0,0,0,0,0,0,0,0,0,0,0,0,0,0,0,0,0,0,0,0,0,0,0,0,0,0,0,0,0,0,0,0,0,0,0,0,0,0,0,0,0],"id":26,"left_children":[1,3,5,7,9,11,-1,13,15,17,19,-1,-1,21,23,25,-1,-1,-1,27,29,31,33,35,-1,-1,-1,37,39,-1,-1,-1,-1,-1,-1,-1,-1,-1,-1,-1,-1],"loss_changes":[2.106188E-1,3.191344E-1,8.010516E-1,8.7939835E-1,4.728494E-1,3.1293488E-1,0E0,8.749484E-1,5.3708607E-1,9.548104E-2,3.3842814E-1,0E0,0E0,4.9772418E-1,4.2146188E-1,9.1605425E-1,0E0,0E0,0E0,4.0179357E-1,1.1007011E0,8.240778E-1,1.5011783E0,2.627295E-1,0E0,0E0,0E0,2.679132E-1,3.3906114E-1,0E0,0E0,0E0,0E0,0E0,0E0,0E0,0E0,0E0,0E0,0E0,0E0],"parents":[2147483647,0,0,1,1,2,2,3,3,4,4,5,5,7,7,8,8,9,9,10,10,13,13,14,14,15,15,19,19,20,20,21,21,22,22,23,23,27,27,28,28],"right_children":[2,4,6,8,10,12,-1,14,16,18,20,-1,-1,22,24,26,-1,-1,-1,28,30,32,34,36,-1,-1,-1,38,40,-1,-1,-1,-1,-1,-1,-1,-1,-1,-1,-1,-1],"split_conditions":[3.0181668E0,1.1425143E0,4.198834E0,9.7351426E-1,1.4155146E0,3.7551385E-1,1.9144037E-1,7.525141E-1,4.198834E0,6.800048E-1,2.129532E0,-1.1921291E-1,4.948322E-2,4.198834E0,8.343061E-1,1.903608E0,2.2699337E-1,-3.311937E-2,-1.8532176E-1,8.343061E-1,2.3663704E0,1.6964858E0,1.0491042E0,7.2419965E-1,-1.8474382E-1,1.3356264E-1,-1.1958188E-1,-2.1091071E-1,1.5325147E0,1.728739E-1,-9.2072025E-2,1.5267875E-2,-1.1788763E-1,-8.1665084E-2,1.5091993E-1,6.1409105E-2,-8.427956E-2,1.0217439E-1,-5.0654892E-2,1.8772667E-2,-1.5662982E-1],"split_indices":[7,8,3,8,8,8,0,8,3,1,7,0,0,3,0,7,0,0,0,0,7,1,5,1,0,0,0,7,8,0,0,0,0,0,0,0,0,0,0,0,0],"split_type":[0,0,0,0,0,0,0,0,0,0,0,0,0,0,0,0,0,0,0,0,0,0,0,0,0,0,0,0,0,0,0,0,0,0,0,0,0,0,0,0,0],"sum_hessian":[1.2737964E2,1.23968796E2,3.410842E0,1.1198365E2,1.1985147E1,2.2115088E0,1.1993332E0,1.07418434E2,4.5652122E0,2.3998353E0,9.585313E0,1.1556867E0,1.0558219E0,1.02363945E2,5.0544925E0,3.2605815E0,1.3046309E0,1.0644313E0,1.3354042E0,5.8325996E0,3.7527127E0,8.566327E1,1.6700674E1,2.4979346E0,2.556558E0,1.9470361E0,1.3135455E0,2.2775292E0,3.5550704E0,1.8564216E0,1.8962911E0,8.225429E1,3.4089828E0,1.467605E1,2.0246234E0,1.2050253E0,1.2929093E0,1.138399E0,1.1391304E0,1.119546E0,2.4355245E0],"tree_param":{"num_deleted":"0","num_feature":"10","num_nodes":"41","size_leaf_vector":"1"}},{"base_weights":[-1.20041985E-2,-4.926388E-2,4.48435E-2,-1.10259674E-1,4.9644195E-2,1.8164667E-1,-3.9193913E-2,-2.572043E-1,6.934107E-2,2.7387848E-1,-2.914024E-1,1.9840542E-2,7.771529E-1,4.2189458E-1,-1.160695E-1,4.5789044E-2,-4.8684868E-1,6.7566186E-1,-6.7407735E-2,-2.5256124E-1,5.517519E-1,1.12653464E-1,-7.283805E-1,1.2087133E-1,-4.1209587E-1,3.2234016E-1,4.9420487E-2,7.120585E-1,-8.3225116E-2,4.141104E-1,-2.0125523E-1,4.9608764E-1,-2.7086982E-1,-7.2089034E-1,-1.859679E-1,-3.1835716E-2,9.522427E-1,-3.979442E-1,2.0152509E-1,-2.1727765E-1,1.2369838E-1,-6.607014E-2,6.879072E-1,3.9708224E-1,-1.8879505E-1,-2.6068085E-1,-1.0173186E-1,-2.8798896E-1,3.3364958E-1,1.4116157E-2,-2.063433E-1,2.8092578E-1,4.4642475E-2,-1.9155016E-2,2.3631324E-1,-3.9692885E-1,2.8603964E-2,-3.8729273E-2,2.6195967E-1,7.32352E-2,-1.657712E-1,-2.7356604E-1,4.8527587E-2,3.484128E-2,-1.5833625E-1,3.529482E-1,8.955502E-2,-1.6021536E-1,8.3539836E-2,-1.0450792E-2,1.6542318E-1,-1.798042E-1,1.7880583E-1,1.3587913E-1,3.5008878E-1,-9.940503E-2,2.1409078E-1,-1.7613722E-1,1.2043375E-1,-3.1468768E-2,1.5868402E-1,-2.3462781E-1,4.1158176E-3,1.430913E-1,-8.334738E-2],"categories":[],"categories_nodes":[],"categories_segments":[],"categories_sizes":[],"default_left":[0,0,0,0,0,0,0,0,0,0,0,0,0,0,0,0,0,0,0,0,0,0,0,0,0,0,0,0,0,0,0,0,0,0,0,0,0,0,0,0,0,0,0,0,0,0,0,0,0,0,0,0,0,0,0,0,0,0,0,0,0,0,0,0,0,0,0,0,0,0,0,0,0,0,0,0,0,0,0,0,0,0,0,0,0],"id":27,"left_children":[1,3,5,7,9,11,13,15,17,19,21,23,25,27,29,31,33,35,37,39,41,43,45,47,49,-1,-1,51,-1,53,55,57,59,61,63,-1,65,67,69,-1,71,-1,73,75,-1,-1,-1,77,79,-1,-1,-1,-1,-1,-1,81,83,-1,-1,-1,-1,-1,-1,-1,-1,-1,-1,-1,-1,-1,-1,-1,-1,-1,-1,-1,-1,-1,-1,-1,-1,-1,-1,-1,-1],"loss_changes":[2.7240574E-1,4.7323698E-1,5.9378475E-1,1.2917231E0,2.3943243E0,1.8727801E0,1.1986239E0,1.8843066E0,1.9118186E0,2.8858566E0,2.2873425E0,7.670293E-1,5.8056974E-1,1.1817853E0,1.3742586E0,1.9098762E0,9.4396114E-1,1.0163416E0,1.7936455E0,1.3625586E0,1.4761772E0,1.8021868E0,4.09863E-2,1.3221302E0,4.5548278E-1,0E0,0E0,3.2929957E-1,0E0,8.152425E-1,1.1492453E0,1.4080626E0,1.2893062E0,1.5405335E0,8.9213204E-1,0E0,1.2188339E-1,9.757794E-1,9.530537E-1,0E0,2.011485E0,0E0,7.0470524E-1,1.6039312E0,0E0,0E0,0E0,1.3412299E0,8.890352E-1,0E0,0E0,0E0,0E0,0E0,0E0,2.1828408E0,1.85901E0,0E0,0E0,0E0,0E0,0E0,0E0,0E0,0E0,0E0,0E0,0E0,0E0,0E0,0E0,0E0,0E0,0E0,0E0,0E0,0E0,0E0,0E0,0E0,0E0,0E0,0E0,0E0,0E0],"parents":[2147483647,0,0,1,1,2,2,3,3,4,4,5,5,6,6,7,7,8,8,9,9,10,10,11,11,12,12,13,13,14,14,15,15,16,16,17,17,18,18,19,19,20,20,21,21,22,22,23,23,24,24,27,27,29,29,30,30,31,31,32,32,33,33,34,34,36,36,37,37,38,38,40,40,42,42,43,43,47,47,48,48,55,55,56,56],"right_children":[2,4,6,8,10,12,14,16,18,20,22,24,26,28,30,32,34,36,38,40,42,44,46,48,50,-1,-1,52,-1,54,56,58,60,62,64,-1,66,68,70,-1,72,-1,74,76,-1,-1,-1,78,80,-1,-1,-1,-1,-1,-1,82,84,-1,-1,-1,-1,-1,-1,-1,-1,-1,-1,-1,-1,-1,-1,-1,-1,-1,-1,-1,-1,-1,-1,-1,-1,-1,-1,-1,-1],"split_conditions":[1.3429272E0,3.9342698E-1,8.343061E-1,8.567841E-1,8.125893E-1,2.845138E-1,-8.3454853E-1,-3.8815746E-1,9.009789E-1,4.5903066E-1,-9.500182E-2,8.951365E-2,1.2825896E0,3.0173697E0,-8.46487E-1,2.8225136E-1,1.2825896E0,-2.3656103E-3,8.343061E-1,8.343061E-1,-5.182548E-1,-1.4864082E-3,2.482061E0,1.5197065E0,-5.239709E-1,3.2234016E-1,4.9420487E-2,1.5639013E0,-8.3225116E-2,-9.634871E-1,1.0081404E0,-6.9637465E-1,-4.0486436E-2,1.2595145E0,9.085142E-1,-3.1835716E-2,3.7551385E-1,9.4751424E-1,3.0173697E0,-2.1727765E-1,-2.3656103E-3,-6.607014E-2,4.198834E0,9.893686E-1,-1.8879505E-1,-2.6068085E-1,-1.0173186E-1,3.0173697E0,-4.304867E-1,1.4116157E-2,-2.063433E-1,2.8092578E-1,4.4642475E-2,-1.9155016E-2,2.3631324E-1,-7.972193E-2,-2.7945194E-1,-3.8729273E-2,2.6195967E-1,7.32352E-2,-1.657712E-1,-2.7356604E-1,4.8527587E-2,3.484128E-2,-1.5833625E-1,3.529482E-1,8.955502E-2,-1.6021536E-1,8.3539836E-2,-1.0450792E-2,1.6542318E-1,-1.798042E-1,1.7880583E-1,1.3587913E-1,3.5008878E-1,-9.940503E-2,2.1409078E-1,-1.7613722E-1,1.2043375E-1,-3.1468768E-2,1.5868402E-1,-2.3462781E-1,4.1158176E-3,1.430913E-1,-8.334738E-2],"split_indices":[1,9,0,1,1,8,7,7,1,1,7,8,7,2,8,1,7,8,0,0,7,8,7,1,9,0,0,1,0,8,6,7,8,8,8,0,8,8,2,0,8,0,3,1,0,0,0,2,8,0,0,0,0,0,0,7,7,0,0,0,0,0,0,0,0,0,0,0,0,0,0,0,0,0,0,0,0,0,0,0,0,0,0,0,0],"split_type":[0,0,0,0,0,0,0,0,0,0,0,0,0,0,0,0,0,0,0,0,0,0,0,0,0,0,0,0,0,0,0,0,0,0,0,0,0,0,0,0,0,0,0,0,0,0,0,0,0,0,0,0,0,0,0,0,0,0,0,0,0,0,0,0,0,0,0,0,0,0,0,0,0,0,0,0,0,0,0,0,0,0,0,0,0],"sum_hessian":[1.2656392E2,7.653439E1,5.0029526E1,4.726914E1,2.9265259E1,1.8595959E1,3.1433567E1,2.576049E1,2.1508646E1,1.7775208E1,1.1490051E1,1.5435316E1,3.1606424E0,3.8505452E0,2.7583021E1,1.1451701E1,1.430879E1,3.2330332E0,1.8275614E1,6.172435E0,1.1602773E1,6.3555408E0,5.134511E0,1.3093001E1,2.342315E0,1.6198008E0,1.5408415E0,2.7084894E0,1.1420556E0,3.2838285E0,2.4299192E1,4.494192E0,6.957509E0,7.2631664E0,7.045624E0,1.005948E0,2.227085E0,7.983563E0,1.029205E1,2.3284652E0,3.8439693E0,1.6469914E0,9.955781E0,4.9303536E0,1.425187E0,2.867092E0,2.2674189E0,4.3605647E0,8.732436E0,1.1899776E0,1.1523372E0,1.4631441E0,1.2453455E0,1.8044395E0,1.479389E0,1.2733032E1,1.156616E1,1.9383726E0,2.5558193E0,2.5072794E0,4.4502296E0,5.9438515E0,1.3193151E0,4.09056E0,2.9550638E0,1.0628242E0,1.1642609E0,6.821422E0,1.1621408E0,6.679935E0,3.6121154E0,1.4125885E0,2.4313807E0,7.984732E0,1.971049E0,1.4793742E0,3.4509795E0,3.1445785E0,1.215986E0,2.833229E0,5.8992076E0,6.1036434E0,6.629389E0,4.469633E0,7.096527E0],"tree_param":{"num_deleted":"0","num_feature":"10","num_nodes":"85","size_leaf_vector":"1"}},{"base_weights":[-1.1911578E-2,3.124498E-2,-6.9825426E-2,-1.6952422E-1,4.9868982E-2,-1.1201074E-1,1.1209484E-1,2.0008726E-1,1.0235211E-2,-4.7926173E-1,-2.6613384E-2,2.5317186E-1,-1.0921676E-1,-5.838279E-2,5.603777E-1,-4.2439453E-2,2.1451725E-1,9.150234E-2,-7.0358104E-1,1.9131033E-1,-6.424176E-2,6.4064205E-1,-2.2624888E-2,-4.779946E-1,2.0309411E-1,3.509629E-1,1.5260568E-1,2.938333E-2,-4.669212E-1,5.406479E-1,-1.12187795E-1,-2.6324445E-1,-4.0450048E-2,2.608954E-2,-4.8950145E-1,3.667196E-2,2.4480122E-1,-3.5630822E-1,1.5524916E-1,-4.6445757E-2,-2.0389073E-1,-3.7910573E-2,2.0048532E-1,2.941701E-1,-1.13531955E-1,-8.863591E-3,1.435033E-1,2.4418658E-2,-2.1846898E-1,2.0306587E-1,4.3118007E-2,7.5231224E-2,-1.256045E-1,-4.624767E-2,9.1097474E-2,-2.0929775E-1,8.941202E-2,-1.921572E-1,6.339613E-2],"categories":[],"categories_nodes":[],"categories_segments":[],"categories_sizes":[],"default_left":[0,0,0,0,0,0,0,0,0,0,0,0,0,0,0,0,0,0,0,0,0,0,0,0,0,0,0,0,0,0,0,0,0,0,0,0,0,0,0,0,0,0,0,0,0,0,0,0,0,0,0,0,0,0,0,0,0,0,0],"id":28,"left_children":[1,3,5,-1,7,9,11,13,15,17,19,21,-1,23,25,27,29,-1,31,-1,33,35,37,39,41,-1,43,45,47,49,51,-1,-1,53,55,-1,-1,57,-1,-1,-1,-1,-1,-1,-1,-1,-1,-1,-1,-1,-1,-1,-1,-1,-1,-1,-1,-1,-1],"loss_changes":[3.1444633E-1,8.309284E-1,4.243385E-1,0E0,4.207294E-1,1.3689662E0,8.0421984E-1,1.4081963E0,6.250374E-1,1.6665274E0,9.609537E-1,9.513749E-1,0E0,1.1400759E0,1.3783691E0,1.4265448E0,1.328485E0,0E0,5.463195E-1,0E0,1.3856714E0,2.3475838E-1,1.281537E0,1.520316E-1,1.0896124E0,0E0,2.5269744E0,1.0876303E0,1.0286317E0,2.3401606E-1,8.583931E-1,0E0,0E0,1.5691264E0,1.2426937E0,0E0,0E0,8.379561E-1,0E0,0E0,0E0,0E0,0E0,0E0,0E0,0E0,0E0,0E0,0E0,0E0,0E0,0E0,0E0,0E0,0E0,0E0,0E0,0E0,0E0],"parents":[2147483647,0,0,1,1,2,2,4,4,5,5,6,6,7,7,8,8,9,9,10,10,11,11,13,13,14,14,15,15,16,16,18,18,20,20,21,21,22,22,23,23,24,24,26,26,27,27,28,28,29,29,30,30,33,33,34,34,37,37],"right_children":[2,4,6,-1,8,10,12,14,16,18,20,22,-1,24,26,28,30,-1,32,-1,34,36,38,40,42,-1,44,46,48,50,52,-1,-1,54,56,-1,-1,58,-1,-1,-1,-1,-1,-1,-1,-1,-1,-1,-1,-1,-1,-1,-1,-1,-1,-1,-1,-1,-1],"split_conditions":[1.5005156E-1,-2.0389172E-1,1.6080961E0,-1.6952422E-1,-6.0316736E-1,-3.0048662E-1,3.9342698E-1,-7.629513E-1,8.955142E-1,-5.239709E-1,-2.614866E-1,-4.9548677E-1,-1.0921676E-1,-1.9648655E-1,-6.2548685E-1,4.5351392E-1,8.343061E-1,9.150234E-2,3.0173697E0,1.9131033E-1,2.193271E0,-9.3748707E-1,3.235138E-1,1.5639013E0,1.166148E0,3.509629E-1,-7.190762E-1,1.6522909E0,-5.239709E-1,2.0963528E0,1.4545146E0,-2.6324445E-1,-4.0450048E-2,5.714224E-2,1.1685144E0,3.667196E-2,2.4480122E-1,1.9843731E0,1.5524916E-1,-4.6445757E-2,-2.0389073E-1,-3.7910573E-2,2.0048532E-1,2.941701E-1,-1.13531955E-1,-8.863591E-3,1.435033E-1,2.4418658E-2,-2.1846898E-1,2.0306587E-1,4.3118007E-2,7.5231224E-2,-1.256045E-1,-4.624767E-2,9.1097474E-2,-2.0929775E-1,8.941202E-2,-1.921572E-1,6.339613E-2],"split_indices":[5,1,1,0,7,8,9,7,8,9,8,8,0,8,8,8,0,0,2,0,7,8,8,1,1,0,7,1,9,7,8,0,0,7,8,0,0,7,0,0,0,0,0,0,0,0,0,0,0,0,0,0,0,0,0,0,0,0,0],"split_type":[0,0,0,0,0,0,0,0,0,0,0,0,0,0,0,0,0,0,0,0,0,0,0,0,0,0,0,0,0,0,0,0,0,0,0,0,0,0,0,0,0,0,0,0,0,0,0,0,0,0,0,0,0,0,0,0,0,0,0],"sum_hessian":[1.2393771E2,7.128079E1,5.2656918E1,1.2701479E0,7.001064E1,4.3056805E1,9.600112E0,1.3770368E1,5.624028E1,7.2530313E0,3.5803772E1,7.767115E0,1.832997E0,8.506102E0,5.2642665E0,4.5341187E1,1.0899094E1,1.5331388E0,5.7198925E0,1.0644244E0,3.473935E1,2.6796148E0,5.0875006E0,2.9476798E0,5.5584216E0,1.3610106E0,3.903256E0,3.957571E1,5.7654757E0,5.1266284E0,5.772465E0,3.9647872E0,1.7551054E0,2.942723E1,5.312118E0,1.1062901E0,1.5733248E0,3.3550777E0,1.7324227E0,1.811745E0,1.1359346E0,3.68028E0,1.8781416E0,1.1944643E0,2.7087915E0,3.580968E1,3.7660284E0,2.08304E0,3.6824358E0,3.2915154E0,1.835113E0,2.7260313E0,3.0464342E0,1.8110918E1,1.1316313E1,4.2918544E0,1.0202637E0,2.150091E0,1.2049867E0],"tree_param":{"num_deleted":"0","num_feature":"10","num_nodes":"59","size_leaf_vector":"1"}},{"base_weights":[-8.252801E-3,-2.312478E-2,1.5535176E-1,-1.127507E-2,-1.8023637E-1,2.893828E-1,-2.1498477E-1,1.2481093E-3,-1.3988967E-1,4.539434E-1,3.0653657E-2,-1.8125367E-1,7.226366E-2,-1.0557644E-2,2.7171546E-1,7.5217575E-1,-7.481667E-2,-1.6011244E-1,1.9691752E-1,1.5307097E-2,-1.608904E-1,-7.326002E-2,2.2350122E-1,3.2475182E-1,-2.766505E-3,-5.402894E-4,2.131067E-1,-8.4294476E-2,1.3931148E-1,6.2413115E-2,-8.973454E-2],"categories":[],"categories_nodes":[],"categories_segments":[],"categories_sizes":[],"default_left":[0,0,0,0,0,0,0,0,0,0,0,0,0,0,0,0,0,0,0,0,0,0,0,0,0,0,0,0,0,0,0],"id":29,"left_children":[1,3,5,7,-1,9,11,13,-1,15,17,-1,-1,19,21,23,-1,-1,-1,25,27,29,-1,-1,-1,-1,-1,-1,-1,-1,-1],